{"learner":{"attributes":{},"feature_names":["requested_runtime","deadline_slack","priority","io_interval","io_duration"],"feature_types":[],"gradient_booster":{"model":{"cats":{"enc":[],"feature_segments":[],"sorted_idx":[]},"gbtree_model_param":{"num_parallel_tree":"1","num_trees":"80"},"iteration_indptr":[0,1,2,3,4,5,6,7,8,9,10,11,12,13,14,15,16,17,18,19,20,21,22,23,24,25,26,27,28,29,30,31,32,33,34,35,36,37,38,39,40,41,42,43,44,45,46,47,48,49,50,51,52,53,54,55,56,57,58,59,60,61,62,63,64,65,66,67,68,69,70,71,72,73,74,75,76,77,78,79,80],"tree_info":[0,0,0,0,0,0,0,0,0,0,0,0,0,0,0,0,0,0,0,0,0,0,0,0,0,0,0,0,0,0,0,0,0,0,0,0,0,0,0,0,0,0,0,0,0,0,0,0,0,0,0,0,0,0,0,0,0,0,0,0,0,0,0,0,0,0,0,0,0,0,0,0,0,0,0,0,0,0,0,0],"trees":[{"base_weights":[2.8281068E-2,-1.8339486E0,9.9456134E2,-5.055825E0,5.6054024E1,9.057163E2,4.8756168E2,-6.7604403E0,1.1962347E1,4.3603485E1,1.3493721E2,1.15646E3,6.522499E1,-6.003801E-1,-1.3903502E-1,5.737843E-1,1.582864E0,2.7181509E0,5.204529E0,9.181931E0,1.5545629E1,7.0035225E1,1.5959145E2],"categories":[],"categories_nodes":[],"categories_segments":[],"categories_sizes":[],"default_left":[0,0,0,0,0,0,0,0,0,0,0,0,0,0,0,0,0,0,0,0,0,0,0],"id":0,"left_children":[1,3,5,7,9,11,-1,13,15,17,19,21,-1,-1,-1,-1,-1,-1,-1,-1,-1,-1,-1],"loss_changes":[1.2585041E8,1.2650182E7,5.20246E7,1.8639374E6,3.506242E6,1.91332E6,0E0,2.183075E5,2.19085E5,6.359385E5,5.60804E5,5.557688E6,0E0,0E0,0E0,0E0,0E0,0E0,0E0,0E0,0E0,0E0,0E0],"parents":[2147483647,0,0,1,1,2,2,3,3,4,4,5,5,7,7,8,8,9,9,10,10,11,11],"right_children":[2,4,6,8,10,12,-1,14,16,18,20,22,-1,-1,-1,-1,-1,-1,-1,-1,-1,-1,-1],"split_conditions":[2.59E2,3.5E1,1.2198E4,1.2E1,1E2,3E0,4.8756168E2,5E0,2.3E1,5.9E1,1.66E2,2E0,6.522499E1,-6.003801E-1,-1.3903502E-1,5.737843E-1,1.582864E0,2.7181509E0,5.204529E0,9.181931E0,1.5545629E1,7.0035225E1,1.5959145E2],"split_indices":[0,0,0,0,0,2,0,0,0,0,0,2,0,0,0,0,0,0,0,0,0,0,0],"split_type":[0,0,0,0,0,0,0,0,0,0,0,0,0,0,0,0,0,0,0,0,0,0,0],"sum_hessian":[6.795E4,6.7824E4,1.26E2,6.4249E4,3.575E3,1.25E2,1E0,5.84E4,5.849E3,3.089E3,4.86E2,3E1,9.5E1,5.0862E4,7.538E3,3.629E3,2.22E3,2.134E3,9.55E2,3.65E2,1.21E2,2.4E1,6E0],"tree_param":{"num_deleted":"0","num_feature":"5","num_nodes":"23","size_leaf_vector":"1"}},{"base_weights":[-9.4978996E-2,-1.6740584E0,8.5379614E2,-4.0544834E0,6.572284E1,7.663148E2,4.680592E2,-6.002702E0,1.6162006E1,5.2004635E1,1.380596E2,1.0268344E3,5.0020237E1,-5.43678E-1,-4.0978E-3,8.133535E-1,1.8945525E0,3.4338207E0,5.7890525E0,9.224819E0,1.4291713E1,6.596976E1,1.0205588E2],"categories":[],"categories_nodes":[],"categories_segments":[],"categories_sizes":[],"default_left":[0,0,0,0,0,0,0,0,0,0,0,0,0,0,0,0,0,0,0,0,0,0,0],"id":1,"left_children":[1,3,5,7,9,11,-1,13,15,17,19,21,-1,-1,-1,-1,-1,-1,-1,-1,-1,-1,-1],"loss_changes":[9.130981E7,1.0844592E7,5.0158904E7,2.5715792E6,2.281134E6,3.914888E6,0E0,2.8114875E5,2.5848762E5,3.55588E5,3.1826E5,1.061612E6,0E0,0E0,0E0,0E0,0E0,0E0,0E0,0E0,0E0,0E0,0E0],"parents":[2147483647,0,0,1,1,2,2,3,3,4,4,5,5,7,7,8,8,9,9,10,10,11,11],"right_children":[2,4,6,8,10,12,-1,14,16,18,20,22,-1,-1,-1,-1,-1,-1,-1,-1,-1,-1,-1],"split_conditions":[2.59E2,4.3E1,1.2198E4,1.5E1,1.13E2,4E0,4.680592E2,6E0,2.8E1,7.3E1,1.66E2,2E0,5.0020237E1,-5.43678E-1,-4.0978E-3,8.133535E-1,1.8945525E0,3.4338207E0,5.7890525E0,9.224819E0,1.4291713E1,6.596976E1,1.0205588E2],"split_indices":[0,0,0,0,0,2,0,0,0,0,0,2,0,0,0,0,0,0,0,0,0,0,0],"split_type":[0,0,0,0,0,0,0,0,0,0,0,0,0,0,0,0,0,0,0,0,0,0,0],"sum_hessian":[6.7717E4,6.7593E4,1.24E2,6.5288E4,2.305E3,1.23E2,1E0,5.955E4,5.738E3,1.939E3,3.66E2,4.1E1,8.2E1,5.2546E4,7.004E3,3.194E3,2.544E3,1.343E3,5.96E2,2.37E2,1.29E2,2.5E1,1.6E1],"tree_param":{"num_deleted":"0","num_feature":"5","num_nodes":"23","size_leaf_vector":"1"}},{"base_weights":[1.6758808E-1,-1.5092849E0,9.036681E2,-4.1907697E0,4.9765217E1,8.2103E2,4.4933682E2,-5.655243E0,1.1351167E1,3.8230026E1,1.1537586E2,9.6499243E2,6.1721603E1,-5.196243E-1,-1.4670761E-1,5.64053E-1,1.4205856E0,2.315189E0,4.301629E0,7.894538E0,1.3216243E1,6.284109E1,1.1937298E2],"categories":[],"categories_nodes":[],"categories_segments":[],"categories_sizes":[],"default_left":[0,0,0,0,0,0,0,0,0,0,0,0,0,0,0,0,0,0,0,0,0,0,0],"id":2,"left_children":[1,3,5,7,9,11,-1,13,15,17,19,21,-1,-1,-1,-1,-1,-1,-1,-1,-1,-1,-1],"loss_changes":[1.0304635E8,9.334388E6,4.4462544E7,1.4684969E6,2.549138E6,1.4644E5,0E0,1.89265E5,1.5294088E5,4.129375E5,4.029355E5,1.477128E6,0E0,0E0,0E0,0E0,0E0,0E0,0E0,0E0,0E0,0E0,0E0],"parents":[2147483647,0,0,1,1,2,2,3,3,4,4,5,5,7,7,8,8,9,9,10,10,11,11],"right_children":[2,4,6,8,10,12,-1,14,16,18,20,22,-1,-1,-1,-1,-1,-1,-1,-1,-1,-1,-1],"split_conditions":[2.59E2,3.7E1,1.2198E4,1.3E1,1E2,3E0,4.4933682E2,4E0,2.4E1,5.7E1,1.66E2,2E0,6.1721603E1,-5.196243E-1,-1.4670761E-1,5.64053E-1,1.4205856E0,2.315189E0,4.301629E0,7.894538E0,1.3216243E1,6.284109E1,1.1937298E2],"split_indices":[0,0,0,0,0,2,0,0,0,0,0,2,0,0,0,0,0,0,0,0,0,0,0],"split_type":[0,0,0,0,0,0,0,0,0,0,0,0,0,0,0,0,0,0,0,0,0,0,0],"sum_hessian":[6.8013E4,6.7888E4,1.25E2,6.4515E4,3.373E3,1.24E2,1E0,5.896E4,5.555E3,2.87E3,5.03E2,2.7E1,9.7E1,4.8334E4,1.0626E4,3.325E3,2.23E3,1.798E3,1.072E3,3.79E2,1.24E2,2.2E1,5E0],"tree_param":{"num_deleted":"0","num_feature":"5","num_nodes":"23","size_leaf_vector":"1"}},{"base_weights":[1.772765E-1,-1.3791925E0,8.1302386E2,-3.3559704E0,5.7564945E1,7.357288E2,4.3136334E2,-5.029952E0,1.4631626E1,4.5715694E1,1.1652598E2,1.0229357E3,5.10691E1,-4.543209E-1,7.215955E-2,7.6921433E-1,1.6772636E0,3.082719E0,5.145005E0,7.854425E0,1.2112362E1,6.125815E1,1.5736143E2],"categories":[],"categories_nodes":[],"categories_segments":[],"categories_sizes":[],"default_left":[0,0,0,0,0,0,0,0,0,0,0,0,0,0,0,0,0,0,0,0,0,0,0],"id":3,"left_children":[1,3,5,7,9,11,-1,13,15,17,19,21,-1,-1,-1,-1,-1,-1,-1,-1,-1,-1,-1],"loss_changes":[8.6058024E7,7.9108165E6,4.204451E7,1.978029E6,1.533786E6,2.954344E6,0E0,2.3138975E5,1.7751612E5,2.42733E5,2.20607E5,6.021418E6,0E0,0E0,0E0,0E0,0E0,0E0,0E0,0E0,0E0,0E0,0E0],"parents":[2147483647,0,0,1,1,2,2,3,3,4,4,5,5,7,7,8,8,9,9,10,10,11,11],"right_children":[2,4,6,8,10,12,-1,14,16,18,20,22,-1,-1,-1,-1,-1,-1,-1,-1,-1,-1,-1],"split_conditions":[7.77E2,1.35E2,3.6594E4,4.8E1,3.39E2,3E0,4.3136334E2,2.1E1,9E1,2.28E2,4.98E2,2E0,5.10691E1,-4.543209E-1,7.215955E-2,7.6921433E-1,1.6772636E0,3.082719E0,5.145005E0,7.854425E0,1.2112362E1,6.125815E1,1.5736143E2],"split_indices":[1,1,1,1,1,2,0,1,1,1,1,2,0,0,0,0,0,0,0,0,0,0,0],"split_type":[0,0,0,0,0,0,0,0,0,0,0,0,0,0,0,0,0,0,0,0,0,0,0],"sum_hessian":[6.8019E4,6.789E4,1.29E2,6.5688E4,2.202E3,1.28E2,1E0,6.0096E4,5.592E3,1.835E3,3.67E2,3E1,9.8E1,5.4169E4,5.927E3,3.122E3,2.47E3,1.326E3,5.09E2,2.43E2,1.24E2,2.5E1,5E0],"tree_param":{"num_deleted":"0","num_feature":"5","num_nodes":"23","size_leaf_vector":"1"}},{"base_weights":[-1.5885247E-2,-1.2827936E0,7.1423553E2,-3.0442815E0,5.4919228E1,5.0659187E1,4.1410883E2,-4.578778E0,1.4325349E1,4.567623E1,1.2211946E2,-4.2444643E-1,3.3246186E-2,7.69553E-1,1.5881639E0,2.9936166E0,5.312329E0,8.185077E0,1.121473E1],"categories":[],"categories_nodes":[],"categories_segments":[],"categories_sizes":[],"default_left":[0,0,0,0,0,0,0,0,0,0,0,0,0,0,0,0,0,0,0],"id":4,"left_children":[1,3,5,7,9,-1,-1,11,13,15,17,-1,-1,-1,-1,-1,-1,-1,-1],"loss_changes":[6.13272E7,6.6977585E6,4.0091664E7,1.7484908E6,1.271468E6,0E0,0E0,2.187915E5,1.3830325E5,3.0708925E5,7.4389E4,0E0,0E0,0E0,0E0,0E0,0E0,0E0,0E0],"parents":[2147483647,0,0,1,1,2,2,3,3,4,4,7,7,8,8,9,9,10,10],"right_children":[2,4,6,8,10,-1,-1,12,14,16,18,-1,-1,-1,-1,-1,-1,-1,-1],"split_conditions":[2.59E2,4.7E1,1.2198E4,1.7E1,1.32E2,5.0659187E1,4.1410883E2,6E0,3.1E1,8.1E1,1.66E2,-4.2444643E-1,3.3246186E-2,7.69553E-1,1.5881639E0,2.9936166E0,5.312329E0,8.185077E0,1.121473E1],"split_indices":[0,0,0,0,0,0,0,0,0,0,0,0,0,0,0,0,0,0,0],"split_type":[0,0,0,0,0,0,0,0,0,0,0,0,0,0,0,0,0,0,0],"sum_hessian":[6.7771E4,6.7652E4,1.19E2,6.5597E4,2.055E3,1.18E2,1E0,6.0273E4,5.324E3,1.808E3,2.47E2,5.2616E4,7.657E3,2.877E3,2.447E3,1.295E3,5.13E2,1.21E2,1.26E2],"tree_param":{"num_deleted":"0","num_feature":"5","num_nodes":"19","size_leaf_vector":"1"}},{"base_weights":[5.330408E-2,-1.1891272E0,6.742657E2,-3.307824E0,3.7955093E1,4.7964256E1,3.975445E2,-4.5383925E0,7.65995E0,2.8225359E1,8.328299E1,-4.2014763E-1,-1.7845042E-1,3.2292196E-1,1.0131418E0,1.7091204E0,3.1049576E0,5.2024603E0,8.907056E0],"categories":[],"categories_nodes":[],"categories_segments":[],"categories_sizes":[],"default_left":[0,0,0,0,0,0,0,0,0,0,0,0,0,0,0,0,0,0,0],"id":5,"left_children":[1,3,5,7,9,-1,-1,11,13,15,17,-1,-1,-1,-1,-1,-1,-1,-1],"loss_changes":[5.6925E7,5.6257545E6,3.7132276E7,8.6854094E5,1.533751E6,0E0,0E0,9.5252E4,1.1766697E5,2.075705E5,3.07683E5,0E0,0E0,0E0,0E0,0E0,0E0,0E0,0E0],"parents":[2147483647,0,0,1,1,2,2,3,3,4,4,7,7,8,8,9,9,10,10],"right_children":[2,4,6,8,10,-1,-1,12,14,16,18,-1,-1,-1,-1,-1,-1,-1,-1],"split_conditions":[2.59E2,3.6E1,1.2198E4,1.1E1,9E1,4.7964256E1,3.975445E2,3E0,2.1E1,5.3E1,1.32E2,-4.2014763E-1,-1.7845042E-1,3.2292196E-1,1.0131418E0,1.7091204E0,3.1049576E0,5.2024603E0,8.907056E0],"split_indices":[0,0,0,0,0,0,0,0,0,0,0,0,0,0,0,0,0,0,0],"split_type":[0,0,0,0,0,0,0,0,0,0,0,0,0,0,0,0,0,0,0],"sum_hessian":[6.7955E4,6.7831E4,1.24E2,6.4349E4,3.482E3,1.23E2,1E0,5.7858E4,6.491E3,2.868E3,6.14E2,4.4194E4,1.3664E4,3.766E3,2.725E3,1.742E3,1.126E3,3.74E2,2.4E2],"tree_param":{"num_deleted":"0","num_feature":"5","num_nodes":"19","size_leaf_vector":"1"}},{"base_weights":[1.7143731E-1,-1.0897404E0,6.641166E2,-2.7569149E0,4.121354E1,5.9476544E2,3.816427E2,-4.012281E0,9.778427E0,3.3056778E1,9.163388E1,7.910143E2,4.2552444E1,-3.7578467E-1,-8.316218E-2,4.661976E-1,1.1738621E0,1.9977758E0,3.6519673E0,6.140308E0,9.583126E0,4.2187435E1,1.3710913E2],"categories":[],"categories_nodes":[],"categories_segments":[],"categories_sizes":[],"default_left":[0,0,0,0,0,0,0,0,0,0,0,0,0,0,0,0,0,0,0,0,0,0,0],"id":6,"left_children":[1,3,5,7,9,11,-1,13,15,17,19,21,-1,-1,-1,-1,-1,-1,-1,-1,-1,-1,-1],"loss_changes":[5.6974212E7,4.7897395E6,3.3899892E7,1.02822706E6,1.055983E6,1.158288E6,0E0,1.2094E5,1.14944875E5,2.246695E5,1.4078975E5,6.15275E6,0E0,0E0,0E0,0E0,0E0,0E0,0E0,0E0,0E0,0E0,0E0],"parents":[2147483647,0,0,1,1,2,2,3,3,4,4,5,5,7,7,8,8,9,9,10,10,11,11],"right_children":[2,4,6,8,10,12,-1,14,16,18,20,22,-1,-1,-1,-1,-1,-1,-1,-1,-1,-1,-1],"split_conditions":[2.59E2,4.1E1,1.2198E4,1.4E1,1.13E2,3E0,3.816427E2,4E0,2.6E1,6.6E1,1.66E2,2E0,4.2552444E1,-3.7578467E-1,-8.316218E-2,4.661976E-1,1.1738621E0,1.9977758E0,3.6519673E0,6.140308E0,9.583126E0,4.2187435E1,1.3710913E2],"split_indices":[0,0,0,0,0,2,0,0,0,0,0,2,0,0,0,0,0,0,0,0,0,0,0],"split_type":[0,0,0,0,0,0,0,0,0,0,0,0,0,0,0,0,0,0,0,0,0,0,0],"sum_hessian":[6.8039E4,6.7911E4,1.28E2,6.5337E4,2.574E3,1.27E2,1E0,5.939E4,5.947E3,2.217E3,3.57E2,2.8E1,9.9E1,4.8267E4,1.1123E4,3.292E3,2.655E3,1.352E3,8.65E2,2.36E2,1.21E2,2.3E1,5E0],"tree_param":{"num_deleted":"0","num_feature":"5","num_nodes":"23","size_leaf_vector":"1"}},{"base_weights":[-1.4889308E-2,-1.4947414E-1,3.6637698E2,-9.9302864E-1,3.78781E1,-2.3485806E0,4.3744755E1,-2.8230485E-1,9.409235E-1,2.913823E0,7.621199E0],"categories":[],"categories_nodes":[],"categories_segments":[],"categories_sizes":[],"default_left":[0,0,0,0,0,0,0,0,0,0,0],"id":7,"left_children":[1,3,-1,5,-1,7,9,-1,-1,-1,-1],"loss_changes":[4.1949036E7,2.7191226E7,0E0,4.1201008E6,0E0,1.0981532E6,7.5023425E5,0E0,0E0,0E0,0E0],"parents":[2147483647,0,0,1,1,3,3,5,5,6,6],"right_children":[2,4,-1,6,-1,8,10,-1,-1,-1,-1],"split_conditions":[3.6594E4,7.77E2,3.6637698E2,1.44E2,3.78781E1,5.4E1,3.96E2,-2.8230485E-1,9.409235E-1,2.913823E0,7.621199E0],"split_indices":[1,1,0,1,0,1,1,0,0,0,0],"split_type":[0,0,0,0,0,0,0,0,0,0,0],"sum_hessian":[6.8057E4,6.8056E4,1E0,6.7936E4,1.2E2,6.5939E4,1.997E3,6.085E4,5.089E3,1.75E3,2.47E2],"tree_param":{"num_deleted":"0","num_feature":"5","num_nodes":"11","size_leaf_vector":"1"}},{"base_weights":[6.6591635E-2,-9.284198E-1,5.28044E2,-2.7207782E0,2.7698938E1,6.9852124E2,3.5639355E1,-3.6918955E0,4.6798563E0,2.0620186E1,6.6205605E1,4.2169907E1,9.49042E2,-3.3393192E-1,-1.5470362E-1,2.1745083E-1,6.9723445E-1,1.3765765E0,2.6643407E0,4.5734E0,8.1867285E0,1.0391197E2,4.57185E1],"categories":[],"categories_nodes":[],"categories_segments":[],"categories_sizes":[],"default_left":[0,0,0,0,0,0,0,0,0,0,0,0,0,0,0,0,0,0,0,0,0,0,0],"id":8,"left_children":[1,3,5,7,9,11,-1,13,15,17,19,-1,21,-1,-1,-1,-1,-1,-1,-1,-1,-1,-1],"loss_changes":[3.5748544E7,3.4850838E6,1.490188E6,4.5939572E5,1.0894962E6,1.217282E6,0E0,4.7899688E4,5.867847E4,1.4583525E5,1.96927E5,0E0,1.239091E6,0E0,0E0,0E0,0E0,0E0,0E0,0E0,0E0,0E0,0E0],"parents":[2147483647,0,0,1,1,2,2,3,3,4,4,5,5,7,7,8,8,9,9,10,10,12,12],"right_children":[2,4,6,8,10,12,-1,14,16,18,20,-1,22,-1,-1,-1,-1,-1,-1,-1,-1,-1,-1],"split_conditions":[2.59E2,3.3E1,4E0,9E0,9E1,2E0,3.5639355E1,3E0,2E1,6.3E1,1.66E2,4.2169907E1,3E0,-3.3393192E-1,-1.5470362E-1,2.1745083E-1,6.9723445E-1,1.3765765E0,2.6643407E0,4.5734E0,8.1867285E0,1.0391197E2,4.57185E1],"split_indices":[0,0,2,0,0,2,0,0,0,0,0,0,2,0,0,0,0,0,0,0,0,0,0],"split_type":[0,0,0,0,0,0,0,0,0,0,0,0,0,0,0,0,0,0,0,0,0,0,0],"sum_hessian":[6.8046E4,6.7919E4,1.27E2,6.3918E4,4.001E3,3.9E1,8.8E1,5.6504E4,7.414E3,3.381E3,6.2E2,2.5E1,1.4E1,4.434E4,1.2164E4,4.99E3,2.424E3,2.666E3,7.15E2,4.98E2,1.22E2,6E0,8E0],"tree_param":{"num_deleted":"0","num_feature":"5","num_nodes":"23","size_leaf_vector":"1"}},{"base_weights":[5.083005E-2,-7.699196E-2,3.4756543E2,-8.3534914E-1,4.1158417E2,-2.3240037E0,2.8623756E1,7.340849E2,2.588945E1,-2.6714918E-1,4.3638015E-1,1.6807258E0,4.8644843E0,4.634784E1,1.0144881E2],"categories":[],"categories_nodes":[],"categories_segments":[],"categories_sizes":[],"default_left":[0,0,0,0,0,0,0,0,0,0,0,0,0,0,0],"id":9,"left_children":[1,3,-1,5,7,9,11,13,-1,-1,-1,-1,-1,-1,-1],"loss_changes":[3.775077E7,2.1222138E7,0E0,2.9757652E6,3.308576E6,5.101737E5,7.9859175E5,1.413791E6,0E0,0E0,0E0,0E0,0E0,0E0,0E0],"parents":[2147483647,0,0,1,1,3,3,4,4,5,5,6,6,7,7],"right_children":[2,4,-1,6,8,10,12,14,-1,-1,-1,-1,-1,-1,-1],"split_conditions":[1.2198E4,2.59E2,3.4756543E2,3.8E1,3E0,1E1,9E1,2E0,2.588945E1,-2.6714918E-1,4.3638015E-1,1.6807258E0,4.8644843E0,4.634784E1,1.0144881E2],"split_indices":[0,0,0,0,2,0,0,2,0,0,0,0,0,0,0],"split_type":[0,0,0,0,0,0,0,0,0,0,0,0,0,0,0],"sum_hessian":[6.7978E4,6.7977E4,1E0,6.7853E4,1.24E2,6.459E4,3.263E3,2.5E1,9.9E1,5.7133E4,7.457E3,2.64E3,6.23E2,2.1E1,4E0],"tree_param":{"num_deleted":"0","num_feature":"5","num_nodes":"15","size_leaf_vector":"1"}},{"base_weights":[-7.3364084E-3,-1.3016382E-1,3.336628E2,-8.120946E-1,3.7880087E2,-2.3826735E0,2.2139452E1,5.735602E2,2.3248352E1,-2.5545922E-1,2.5003928E-1,1.2942905E0,4.1327753E0,3.6882366E1,5.4306377E1],"categories":[],"categories_nodes":[],"categories_segments":[],"categories_sizes":[],"default_left":[0,0,0,0,0,0,0,0,0,0,0,0,0,0,0],"id":10,"left_children":[1,3,-1,5,7,9,11,13,-1,-1,-1,-1,-1,-1,-1],"loss_changes":[3.4792044E7,1.754935E7,0E0,2.4437652E6,1.928924E6,2.8330197E5,7.632035E5,1.25342E5,0E0,0E0,0E0,0E0,0E0,0E0,0E0],"parents":[2147483647,0,0,1,1,3,3,4,4,5,5,6,6,7,7],"right_children":[2,4,-1,6,8,10,12,14,-1,-1,-1,-1,-1,-1,-1],"split_conditions":[3.6594E4,7.77E2,3.336628E2,9.6E1,4E0,2.4E1,2.43E2,1E0,2.3248352E1,-2.5545922E-1,2.5003928E-1,1.2942905E0,4.1327753E0,3.6882366E1,5.4306377E1],"split_indices":[1,1,0,1,2,1,1,2,0,0,0,0,0,0,0],"split_type":[0,0,0,0,0,0,0,0,0,0,0,0,0,0,0],"sum_hessian":[6.7913E4,6.7912E4,1E0,6.7791E4,1.21E2,6.345E4,4.341E3,3.6E1,8.5E1,5.5311E4,8.139E3,3.613E3,7.28E2,2E1,1.6E1],"tree_param":{"num_deleted":"0","num_feature":"5","num_nodes":"15","size_leaf_vector":"1"}},{"base_weights":[-3.5993762E-2,-1.5348637E-1,3.203163E2,-7.4644613E-1,3.1254892E2,-1.6748483E0,3.3531364E1,3.2820065E1,2.851182E2,-2.0932695E-1,6.4082104E-1,2.200431E0,5.7214417E0,7.512474E0,2.3346209E1],"categories":[],"categories_nodes":[],"categories_segments":[],"categories_sizes":[],"default_left":[0,0,0,0,0,0,0,0,0,0,0,0,0,0,0],"id":11,"left_children":[1,3,-1,5,7,9,11,-1,13,-1,-1,-1,-1,-1,-1],"loss_changes":[3.206481E7,1.2637901E7,0E0,2.1649835E6,2.28754E5,6.04149E5,4.0869138E5,0E0,1.0602E5,0E0,0E0,0E0,0E0,0E0,0E0],"parents":[2147483647,0,0,1,1,3,3,4,4,5,5,6,6,8,8],"right_children":[2,4,-1,6,8,10,12,-1,14,-1,-1,-1,-1,-1,-1],"split_conditions":[3.6594E4,7.77E2,3.203163E2,1.53E2,2E0,4.8E1,3.96E2,3.2820065E1,3E0,-2.0932695E-1,6.4082104E-1,2.200431E0,5.7214417E0,7.512474E0,2.3346209E1],"split_indices":[1,1,0,1,2,1,1,0,2,0,0,0,0,0,0],"split_type":[0,0,0,0,0,0,0,0,0,0,0,0,0,0,0],"sum_hessian":[6.8157E4,6.8156E4,1E0,6.8028E4,1.28E2,6.6235E4,1.793E3,2.5E1,1.03E2,6.0366E4,5.869E3,1.549E3,2.44E2,4E0,9.9E1],"tree_param":{"num_deleted":"0","num_feature":"5","num_nodes":"15","size_leaf_vector":"1"}},{"base_weights":[9.137859E-2,-6.492827E-1,4.0248306E2,-1.513431E0,3.1736814E1,5.666982E2,2.8116596E1,-2.3352046E0,8.44627E0,2.5904106E1,6.53996E1,2.6044273E1,7.7456276E1,-2.3257487E-1,4.2277798E-2,4.0814358E-1,8.5382086E-1,1.6287602E0,2.6815012E0,4.1623383E0,6.3538694E0],"categories":[],"categories_nodes":[],"categories_segments":[],"categories_sizes":[],"default_left":[0,0,0,0,0,0,0,0,0,0,0,0,0,0,0,0,0,0,0,0,0],"id":12,"left_children":[1,3,5,7,9,11,-1,13,15,17,19,-1,-1,-1,-1,-1,-1,-1,-1,-1,-1],"loss_changes":[2.0277138E7,1.9006316E6,8.48224E5,5.4140775E5,3.4485538E5,2.395783E6,0E0,1.0009128E5,3.74905E4,6.2901312E4,4.46185E4,0E0,0E0,0E0,0E0,0E0,0E0,0E0,0E0,0E0,0E0],"parents":[2147483647,0,0,1,1,2,2,3,3,4,4,5,5,7,7,8,8,9,9,10,10],"right_children":[2,4,6,8,10,12,-1,14,16,18,20,-1,-1,-1,-1,-1,-1,-1,-1,-1,-1],"split_conditions":[2.59E2,5.3E1,3E0,1.9E1,1.32E2,1E0,2.8116596E1,5E0,2.9E1,7.6E1,1.66E2,2.6044273E1,7.7456276E1,-2.3257487E-1,4.2277798E-2,4.0814358E-1,8.5382086E-1,1.6287602E0,2.6815012E0,4.1623383E0,6.3538694E0],"split_indices":[0,0,2,0,0,2,0,0,0,0,0,0,0,0,0,0,0,0,0,0,0],"split_type":[0,0,0,0,0,0,0,0,0,0,0,0,0,0,0,0,0,0,0,0,0],"sum_hessian":[6.8034E4,6.791E4,1.24E2,6.6146E4,1.764E3,2.7E1,9.7E1,6.1105E4,5.041E3,1.505E3,2.59E2,1.8E1,9E0,5.0932E4,1.0173E4,2.016E3,3.025E3,8.73E2,6.32E2,1.35E2,1.24E2],"tree_param":{"num_deleted":"0","num_feature":"5","num_nodes":"21","size_leaf_vector":"1"}},{"base_weights":[-7.027007E-2,-1.8170634E-1,3.044054E2,-6.0327905E-1,2.297219E2,-1.5716966E0,2.3809566E1,2.4941973E1,2.1300484E2,-1.9067119E-1,3.8332167E-1,1.4921771E0,4.372956E0,-2.0266445E1,1.9457293E1],"categories":[],"categories_nodes":[],"categories_segments":[],"categories_sizes":[],"default_left":[0,0,0,0,0,0,0,0,0,0,0,0,0,0,0],"id":13,"left_children":[1,3,-1,5,7,9,11,-1,13,-1,-1,-1,-1,-1,-1],"loss_changes":[2.8958996E7,6.619073E6,0E0,1.6116535E6,1.050505E5,3.386689E5,4.1284275E5,0E0,1.569095E6,0E0,0E0,0E0,0E0,0E0,0E0],"parents":[2147483647,0,0,1,1,3,3,4,4,5,5,6,6,8,8],"right_children":[2,4,-1,6,8,10,12,-1,14,-1,-1,-1,-1,-1,-1],"split_conditions":[1.2198E4,2.59E2,3.044054E2,4.1E1,1E0,1.1E1,1.13E2,2.4941973E1,3E0,-1.9067119E-1,3.8332167E-1,1.4921771E0,4.372956E0,-2.0266445E1,1.9457293E1],"split_indices":[0,0,0,0,2,0,0,0,2,0,0,0,0,0,0],"split_type":[0,0,0,0,0,0,0,0,0,0,0,0,0,0,0],"sum_hessian":[6.8292E4,6.8291E4,1E0,6.8167E4,1.24E2,6.5567E4,2.6E3,1.8E1,1.06E2,5.815E4,7.417E3,2.229E3,3.71E2,6E0,1E2],"tree_param":{"num_deleted":"0","num_feature":"5","num_nodes":"15","size_leaf_vector":"1"}},{"base_weights":[1.1873783E-3,-5.664213E-1,3.0836707E2,-1.8174993E0,1.4808973E1,9.843798E1,3.498101E2,-2.3732293E0,1.6284004E0,1.1346048E1,4.0624523E1,9.255224E0,-3.9512143E0,8.1669495E1,2.3864626E1,-2.2784889E-1,-1.0784429E-1,9.0829335E-2,3.4114113E-1,7.551655E-1,1.7277502E0,2.7601104E0,5.424748E0],"categories":[],"categories_nodes":[],"categories_segments":[],"categories_sizes":[],"default_left":[0,0,0,0,0,0,0,0,0,0,0,0,0,0,0,0,0,0,0,0,0,0,0],"id":14,"left_children":[1,3,5,7,9,11,13,15,17,19,21,-1,-1,-1,-1,-1,-1,-1,-1,-1,-1,-1,-1],"loss_changes":[1.1908069E7,1.3063121E6,1.053077E6,1.2026522E5,4.5635912E5,6.1822297E4,3.289815E6,2.6323875E4,1.1330008E4,8.787631E4,9.820025E4,0E0,0E0,0E0,0E0,0E0,0E0,0E0,0E0,0E0,0E0,0E0,0E0],"parents":[2147483647,0,0,1,1,2,2,3,3,4,4,5,5,6,6,7,7,8,8,9,9,10,10],"right_children":[2,4,6,8,10,12,14,16,18,20,22,-1,-1,-1,-1,-1,-1,-1,-1,-1,-1,-1,-1],"split_conditions":[2.59E2,2.7E1,2E0,7E0,9E1,1E0,3E0,2E0,2E1,6.3E1,1.66E2,9.255224E0,-3.9512143E0,8.1669495E1,2.3864626E1,-2.2784889E-1,-1.0784429E-1,9.0829335E-2,3.4114113E-1,7.551655E-1,1.7277502E0,2.7601104E0,5.424748E0],"split_indices":[0,0,2,0,0,2,2,0,0,0,0,0,0,0,0,0,0,0,0,0,0,0,0],"split_type":[0,0,0,0,0,0,0,0,0,0,0,0,0,0,0,0,0,0,0,0,0,0,0],"sum_hessian":[6.8032E4,6.7908E4,1.24E2,6.2799E4,5.109E3,2.1E1,1.03E2,5.4078E4,8.721E3,4.506E3,6.03E2,1.9E1,2E0,6E0,9.7E1,3.6957E4,1.7121E4,7.348E3,1.373E3,3.801E3,7.05E2,4.94E2,1.09E2],"tree_param":{"num_deleted":"0","num_feature":"5","num_nodes":"23","size_leaf_vector":"1"}},{"base_weights":[7.880677E-2,-4.9908543E-1,3.0649197E2,-1.2000353E0,2.4199842E1,4.221343E2,2.1591265E1,-1.8008891E0,6.84826E0,1.9883604E1,5.201281E1,2.4913307E1,5.068579E1,-1.9814377E-1,-5.344875E-3,4.1748232E-1,7.2619957E-1,1.1066344E0,1.9715881E0,3.2460403E0,5.0573606E0],"categories":[],"categories_nodes":[],"categories_segments":[],"categories_sizes":[],"default_left":[0,0,0,0,0,0,0,0,0,0,0,0,0,0,0,0,0,0,0,0,0],"id":15,"left_children":[1,3,5,7,9,11,-1,13,15,17,19,-1,-1,-1,-1,-1,-1,-1,-1,-1,-1],"loss_changes":[1.2040462E7,1.1750255E6,4.27849E5,3.1916384E5,2.238145E5,4.81585E5,0E0,7.198061E4,1.6610188E4,4.6415625E4,2.95995E4,0E0,0E0,0E0,0E0,0E0,0E0,0E0,0E0,0E0,0E0],"parents":[2147483647,0,0,1,1,2,2,3,3,4,4,5,5,7,7,8,8,9,9,10,10],"right_children":[2,4,6,8,10,12,-1,14,16,18,20,-1,-1,-1,-1,-1,-1,-1,-1,-1,-1],"split_conditions":[7.77E2,1.53E2,3E0,6E1,3.96E2,1E0,2.1591265E1,9E0,1.02E2,2.07E2,4.98E2,2.4913307E1,5.068579E1,-1.9814377E-1,-5.344875E-3,4.1748232E-1,7.2619957E-1,1.1066344E0,1.9715881E0,3.2460403E0,5.0573606E0],"split_indices":[1,1,2,1,1,2,0,1,1,1,1,0,0,0,0,0,0,0,0,0,0],"split_type":[0,0,0,0,0,0,0,0,0,0,0,0,0,0,0,0,0,0,0,0,0],"sum_hessian":[6.7995E4,6.7868E4,1.27E2,6.5996E4,1.872E3,2.8E1,9.9E1,6.1412E4,4.584E3,1.622E3,2.5E2,2E1,8E0,4.4188E4,1.7224E4,2.65E3,1.934E3,7.16E2,9.06E2,1.26E2,1.24E2],"tree_param":{"num_deleted":"0","num_feature":"5","num_nodes":"21","size_leaf_vector":"1"}},{"base_weights":[-7.148228E-2,-1.7701139E-1,2.86935E2,-4.690562E-1,1.2874674E1,-1.0890516E0,2.3243082E1,-1.4488232E-1,3.876697E-1,1.503615E0,3.919871E0],"categories":[],"categories_nodes":[],"categories_segments":[],"categories_sizes":[],"default_left":[0,0,0,0,0,0,0,0,0,0,0],"id":16,"left_children":[1,3,-1,5,-1,7,9,-1,-1,-1,-1],"loss_changes":[2.5730436E7,3.1984458E6,0E0,9.975753E5,0E0,2.833508E5,1.9714788E5,0E0,0E0,0E0,0E0],"parents":[2147483647,0,0,1,1,3,3,5,5,6,6],"right_children":[2,4,-1,6,-1,8,10,-1,-1,-1,-1],"split_conditions":[1.2198E4,2.59E2,2.86935E2,5.3E1,1.2874674E1,1.3E1,1.32E2,-1.4488232E-1,3.876697E-1,1.503615E0,3.919871E0],"split_indices":[0,0,0,0,0,0,0,0,0,0,0],"split_type":[0,0,0,0,0,0,0,0,0,0,0],"sum_hessian":[6.7976E4,6.7975E4,1E0,6.7853E4,1.22E2,6.6125E4,1.728E3,5.8954E4,7.171E3,1.475E3,2.53E2],"tree_param":{"num_deleted":"0","num_feature":"5","num_nodes":"11","size_leaf_vector":"1"}},{"base_weights":[9.8668315E-2,-2.525512E-3,2.7545758E2,-4.3653092E-1,2.6564398E2,-1.3978655E0,1.2289359E1,1.1479934E1,2.8620743E2,-1.4987956E-1,1.1691167E-1,7.701188E-1,2.8181198E0,5.9802177E1,1.9239798E1],"categories":[],"categories_nodes":[],"categories_segments":[],"categories_sizes":[],"default_left":[0,0,0,0,0,0,0,0,0,0,0,0,0,0,0],"id":17,"left_children":[1,3,-1,5,7,9,11,-1,13,-1,-1,-1,-1,-1,-1],"loss_changes":[2.3710866E7,7.845854E6,0E0,8.311964E5,2.377295E5,8.591067E4,2.911285E5,0E0,1.802391E6,0E0,0E0,0E0,0E0,0E0,0E0],"parents":[2147483647,0,0,1,1,3,3,4,4,5,5,6,6,8,8],"right_children":[2,4,-1,6,8,10,12,-1,14,-1,-1,-1,-1,-1,-1],"split_conditions":[1.2198E4,2.59E2,2.7545758E2,2.9E1,1E0,7E0,1E2,1.1479934E1,3E0,-1.4987956E-1,1.1691167E-1,7.701188E-1,2.8181198E0,5.9802177E1,1.9239798E1],"split_indices":[0,0,0,0,2,0,0,0,2,0,0,0,0,0,0],"split_type":[0,0,0,0,0,0,0,0,0,0,0,0,0,0,0],"sum_hessian":[6.8051E4,6.805E4,1E0,6.794E4,1.1E2,6.3169E4,4.771E3,1.7E1,9.3E1,5.416E4,9.009E3,4.276E3,4.95E2,7E0,8.6E1],"tree_param":{"num_deleted":"0","num_feature":"5","num_nodes":"15","size_leaf_vector":"1"}},{"base_weights":[9.559695E-2,-1.596247E-3,2.644393E2,-4.1034973E-1,2.3128134E2,-1.0835161E0,1.5005329E1,3.4944644E2,1.5040819E1,-1.3239214E-1,2.1443401E-1,9.6287227E-1,2.9162872E0,1.0171206E1,5.526692E1],"categories":[],"categories_nodes":[],"categories_segments":[],"categories_sizes":[],"default_left":[0,0,0,0,0,0,0,0,0,0,0,0,0,0,0],"id":18,"left_children":[1,3,-1,5,7,9,11,13,-1,-1,-1,-1,-1,-1,-1],"loss_changes":[2.1851922E7,6.430361E6,0E0,7.0462575E5,5.478765E5,1.3992433E5,1.8050175E5,2.2648562E6,0E0,0E0,0E0,0E0,0E0,0E0,0E0],"parents":[2147483647,0,0,1,1,3,3,4,4,5,5,6,6,7,7],"right_children":[2,4,-1,6,8,10,12,14,-1,-1,-1,-1,-1,-1,-1],"split_conditions":[1.2198E4,2.59E2,2.644393E2,3.9E1,4E0,9E0,1.13E2,2E0,1.5040819E1,-1.3239214E-1,2.1443401E-1,9.6287227E-1,2.9162872E0,1.0171206E1,5.526692E1],"split_indices":[0,0,0,0,2,0,0,2,0,0,0,0,0,0,0],"split_type":[0,0,0,0,0,0,0,0,0,0,0,0,0,0,0],"sum_hessian":[6.8018E4,6.8017E4,1E0,6.7898E4,1.19E2,6.5058E4,2.84E3,3E1,8.9E1,5.6484E4,8.574E3,2.496E3,3.44E2,1.9E1,1.1E1],"tree_param":{"num_deleted":"0","num_feature":"5","num_nodes":"15","size_leaf_vector":"1"}},{"base_weights":[1.2665898E-1,3.3193246E-2,2.5386171E2,-3.6867142E-1,2.0479962E2,-8.03463E-1,2.1285135E1,1.0584501E0,2.3661172E2,-1.0320653E-1,4.5662525E-1,1.4794284E0,3.9098613E0,5.372627E1,1.5434629E1],"categories":[],"categories_nodes":[],"categories_segments":[],"categories_sizes":[],"default_left":[0,0,0,0,0,0,0,0,0,0,0,0,0,0,0],"id":19,"left_children":[1,3,-1,5,7,9,11,-1,13,-1,-1,-1,-1,-1,-1],"loss_changes":[2.0138288E7,5.587539E6,0E0,6.3805494E5,8.074005E5,2.1051047E5,1.0185931E5,0E0,2.0362975E6,0E0,0E0,0E0,0E0,0E0,0E0],"parents":[2147483647,0,0,1,1,3,3,4,4,5,5,6,6,8,8],"right_children":[2,4,-1,6,8,10,12,-1,14,-1,-1,-1,-1,-1,-1],"split_conditions":[1.2198E4,2.59E2,2.5386171E2,6.3E1,1E0,2.2E1,1.66E2,1.0584501E0,3E0,-1.0320653E-1,4.5662525E-1,1.4794284E0,3.9098613E0,5.372627E1,1.5434629E1],"split_indices":[0,0,0,0,2,0,0,0,2,0,0,0,0,0,0],"split_type":[0,0,0,0,0,0,0,0,0,0,0,0,0,0,0],"sum_hessian":[6.7901E4,6.79E4,1E0,6.7768E4,1.32E2,6.6435E4,1.333E3,1.9E1,1.13E2,6.1816E4,4.619E3,1.212E3,1.21E2,9E0,1.04E2],"tree_param":{"num_deleted":"0","num_feature":"5","num_nodes":"15","size_leaf_vector":"1"}},{"base_weights":[-1.7537975E-1,-4.247856E-1,7.029394E1,-1.1422429E0,8.390014E0,2.1261714E2,9.243262E0,-1.7486069E0,3.1553525E-1,5.9628153E0,1.8308237E1,3.25889E0,3.741063E2,3.6757684E0,-1.9412173E0,-1.5134272E-1,-8.093593E-2,-1.8904423E-2,1.1231523E-1,4.039409E-1,6.536389E-1,1.2362454E0,1.8471369E0,3.4718975E1,1.3522327E1],"categories":[],"categories_nodes":[],"categories_segments":[],"categories_sizes":[],"default_left":[0,0,0,0,0,0,0,0,0,0,0,0,0,0,0,0,0,0,0,0,0,0,0,0,0],"id":20,"left_children":[1,3,5,7,9,11,13,15,17,19,21,-1,23,-1,-1,-1,-1,-1,-1,-1,-1,-1,-1,-1,-1],"loss_changes":[1.19604E6,4.2886275E5,2.0833771E6,5.5430945E4,1.2276194E5,1.9832588E6,2.0896633E5,4.6707188E3,1.1065066E4,8.231766E3,1.3334656E4,0E0,3.810115E5,0E0,0E0,0E0,0E0,0E0,0E0,0E0,0E0,0E0,0E0,0E0,0E0],"parents":[2147483647,0,0,1,1,2,2,3,3,4,4,5,5,6,6,7,7,8,8,9,9,10,10,12,12],"right_children":[2,4,6,8,10,12,14,16,18,20,22,-1,24,-1,-1,-1,-1,-1,-1,-1,-1,-1,-1,-1,-1],"split_conditions":[1.66E2,2.6E1,4E0,3E0,6.9E1,2.59E2,2.59E2,2E0,9E0,4.3E1,1E2,3.25889E0,3E0,3.6757684E0,-1.9412173E0,-1.5134272E-1,-8.093593E-2,-1.8904423E-2,1.1231523E-1,4.039409E-1,6.536389E-1,1.2362454E0,1.8471369E0,3.4718975E1,1.3522327E1],"split_indices":[0,0,2,0,0,0,0,0,0,0,0,0,2,0,0,0,0,0,0,0,0,0,0,0,0],"split_type":[0,0,0,0,0,0,0,0,0,0,0,0,0,0,0,0,0,0,0,0,0,0,0,0,0],"sum_hessian":[6.8049E4,6.781E4,2.39E2,6.2707E4,5.103E3,7.1E1,1.68E2,4.4286E4,1.8421E4,4.101E3,1.002E3,3.5E1,3.6E1,8E1,8.8E1,3.708E4,7.206E3,1.2224E4,6.197E3,2.903E3,1.198E3,6.3E2,3.72E2,2.7E1,9E0],"tree_param":{"num_deleted":"0","num_feature":"5","num_nodes":"25","size_leaf_vector":"1"}},{"base_weights":[1.4830065E-1,5.8940504E-2,2.423185E2,-3.0792177E-1,2.0354672E2,-6.642456E-1,1.8987831E1,3.5092126E2,1.2305429E1,-8.758335E-2,3.9474854E-1,1.3071547E0,3.3279326E0,1.3587067E1,8.375573E1],"categories":[],"categories_nodes":[],"categories_segments":[],"categories_sizes":[],"default_left":[0,0,0,0,0,0,0,0,0,0,0,0,0,0,0],"id":21,"left_children":[1,3,-1,5,7,9,11,13,-1,-1,-1,-1,-1,-1,-1],"loss_changes":[1.83482E7,5.0607955E6,0E0,4.6528016E5,8.401315E5,1.6016584E5,7.279772E4,3.6033378E6,0E0,0E0,0E0,0E0,0E0,0E0,0E0],"parents":[2147483647,0,0,1,1,3,3,4,4,5,5,6,6,7,7],"right_children":[2,4,-1,6,8,10,12,14,-1,-1,-1,-1,-1,-1,-1],"split_conditions":[3.6594E4,7.77E2,2.423185E2,1.98E2,3E0,6.6E1,4.98E2,2E0,1.2305429E1,-8.758335E-2,3.9474854E-1,1.3071547E0,3.3279326E0,1.3587067E1,8.375573E1],"split_indices":[1,1,0,1,2,1,1,2,0,0,0,0,0,0,0],"split_type":[0,0,0,0,0,0,0,0,0,0,0,0,0,0,0],"sum_hessian":[6.7791E4,6.779E4,1E0,6.7669E4,1.21E2,6.6443E4,1.226E3,2.9E1,9.2E1,6.1699E4,4.744E3,1.099E3,1.27E2,2.4E1,5E0],"tree_param":{"num_deleted":"0","num_feature":"5","num_nodes":"15","size_leaf_vector":"1"}},{"base_weights":[2.0085484E-2,-6.5541655E-2,2.3262576E2,-2.9609182E-1,1.3129048E2,-7.2404665E-1,1.2709315E1,2.142857E2,1.04604004E2,-1.0044245E-1,1.7027256E-1,7.9772484E-1,2.1243715E0,5.2687955E0,5.2012352E1,-3.229451E1,1.1076466E1],"categories":[],"categories_nodes":[],"categories_segments":[],"categories_sizes":[],"default_left":[0,0,0,0,0,0,0,0,0,0,0,0,0,0,0,0,0],"id":22,"left_children":[1,3,-1,5,7,9,11,13,15,-1,-1,-1,-1,-1,-1,-1,-1],"loss_changes":[1.6911122E7,2.0568782E6,0E0,3.7736544E5,2.41152E5,9.9516625E4,8.161025E4,1.768617E6,1.6388792E6,0E0,0E0,0E0,0E0,0E0,0E0,0E0,0E0],"parents":[2147483647,0,0,1,1,3,3,4,4,5,5,6,6,7,7,8,8],"right_children":[2,4,-1,6,8,10,12,14,16,-1,-1,-1,-1,-1,-1,-1,-1],"split_conditions":[1.2198E4,2.59E2,2.3262576E2,4.5E1,3E0,8E0,1.13E2,2E0,4E0,-1.0044245E-1,1.7027256E-1,7.9772484E-1,2.1243715E0,5.2687955E0,5.2012352E1,-3.229451E1,1.1076466E1],"split_indices":[0,0,0,0,2,0,0,2,2,0,0,0,0,0,0,0,0],"split_type":[0,0,0,0,0,0,0,0,0,0,0,0,0,0,0,0,0],"sum_hessian":[6.7918E4,6.7917E4,1E0,6.7799E4,1.18E2,6.564E4,2.159E3,2.7E1,9.1E1,5.5331E4,1.0309E4,1.804E3,3.55E2,2.1E1,6E0,5E0,8.6E1],"tree_param":{"num_deleted":"0","num_feature":"5","num_nodes":"17","size_leaf_vector":"1"}},{"base_weights":[9.9651486E-2,1.7617302E-2,2.2332072E2,-2.7158847E-1,1.5349763E2,-8.031233E-1,8.784617E0,3.3181186E2,8.0201235E0,-1.0680195E-1,6.634909E-2,4.9273586E-1,1.5609703E0,1.419568E1,7.151786E1],"categories":[],"categories_nodes":[],"categories_segments":[],"categories_sizes":[],"default_left":[0,0,0,0,0,0,0,0,0,0,0,0,0,0,0],"id":23,"left_children":[1,3,-1,5,7,9,11,13,-1,-1,-1,-1,-1,-1,-1],"loss_changes":[1.558439E7,3.0208645E6,0E0,3.269961E5,1.182036E6,5.5716086E4,1.0594622E5,2.357945E6,0E0,0E0,0E0,0E0,0E0,0E0,0E0],"parents":[2147483647,0,0,1,1,3,3,4,4,5,5,6,6,7,7],"right_children":[2,4,-1,6,8,10,12,14,-1,-1,-1,-1,-1,-1,-1],"split_conditions":[1.2198E4,2.59E2,2.2332072E2,3.4E1,3E0,4E0,8.1E1,2E0,8.0201235E0,-1.0680195E-1,6.634909E-2,4.9273586E-1,1.5609703E0,1.419568E1,7.151786E1],"split_indices":[0,0,0,0,2,0,0,2,0,0,0,0,0,0,0],"split_type":[0,0,0,0,0,0,0,0,0,0,0,0,0,0,0],"sum_hessian":[6.8056E4,6.8055E4,1E0,6.7928E4,1.27E2,6.4163E4,3.765E3,2.8E1,9.9E1,4.8395E4,1.5768E4,3.026E3,7.39E2,2.3E1,5E0],"tree_param":{"num_deleted":"0","num_feature":"5","num_nodes":"15","size_leaf_vector":"1"}},{"base_weights":[1.58192E-1,7.932188E-2,2.1438788E2,-2.3526724E-1,1.7078732E2,-5.3236055E-1,1.4428568E1,3.9992166E0,1.8933882E2,-7.1744554E-2,2.8198904E-1,9.7934586E-1,2.8126605E0,2.6781698E1,1.3948521E1],"categories":[],"categories_nodes":[],"categories_segments":[],"categories_sizes":[],"default_left":[0,0,0,0,0,0,0,0,0,0,0,0,0,0,0],"id":24,"left_children":[1,3,-1,5,7,9,11,-1,13,-1,-1,-1,-1,-1,-1],"loss_changes":[1.4361904E7,3.649366E6,0E0,2.9551094E5,2.706555E5,9.830909E4,6.0629844E4,0E0,1.7695325E5,0E0,0E0,0E0,0E0,0E0,0E0],"parents":[2147483647,0,0,1,1,3,3,4,4,5,5,6,6,8,8],"right_children":[2,4,-1,6,8,10,12,-1,14,-1,-1,-1,-1,-1,-1],"split_conditions":[1.2198E4,2.59E2,2.1438788E2,6.3E1,1E0,1.9E1,1.66E2,3.9992166E0,3E0,-7.1744554E-2,2.8198904E-1,9.7934586E-1,2.8126605E0,2.6781698E1,1.3948521E1],"split_indices":[0,0,0,0,2,0,0,0,2,0,0,0,0,0,0],"split_type":[0,0,0,0,0,0,0,0,0,0,0,0,0,0,0],"sum_hessian":[6.7954E4,6.7953E4,1E0,6.7829E4,1.24E2,6.6483E4,1.346E3,1.7E1,1.07E2,6.1004E4,5.479E3,1.219E3,1.27E2,8E0,9.9E1],"tree_param":{"num_deleted":"0","num_feature":"5","num_nodes":"15","size_leaf_vector":"1"}},{"base_weights":[1.8381403E-1,1.0813706E-1,2.0581238E2,-2.175383E-1,1.8127618E2,-4.7146672E-1,1.4501454E1,2.8464645E2,1.179655E1,-6.2289305E-2,3.2192206E-1,9.9007255E-1,2.5732458E0,1.601926E1,4.1705254E1],"categories":[],"categories_nodes":[],"categories_segments":[],"categories_sizes":[],"default_left":[0,0,0,0,0,0,0,0,0,0,0,0,0,0,0],"id":25,"left_children":[1,3,-1,5,7,9,11,13,-1,-1,-1,-1,-1,-1,-1],"loss_changes":[1.3235603E7,4.0114655E6,0E0,2.5366456E5,3.8452825E5,9.212521E4,4.2817266E4,4.7492175E5,0E0,0E0,0E0,0E0,0E0,0E0,0E0],"parents":[2147483647,0,0,1,1,3,3,4,4,5,5,6,6,7,7],"right_children":[2,4,-1,6,8,10,12,14,-1,-1,-1,-1,-1,-1,-1],"split_conditions":[1.2198E4,2.59E2,2.0581238E2,6.9E1,3E0,2.5E1,1.66E2,2E0,1.179655E1,-6.2289305E-2,3.2192206E-1,9.9007255E-1,2.5732458E0,1.601926E1,4.1705254E1],"split_indices":[0,0,0,0,2,0,0,2,0,0,0,0,0,0,0],"split_type":[0,0,0,0,0,0,0,0,0,0,0,0,0,0,0],"sum_hessian":[6.7988E4,6.7987E4,1E0,6.7866E4,1.21E2,6.6716E4,1.15E3,2.8E1,9.3E1,6.245E4,4.266E3,1.028E3,1.22E2,2.2E1,6E0],"tree_param":{"num_deleted":"0","num_feature":"5","num_nodes":"15","size_leaf_vector":"1"}},{"base_weights":[1.5083072E-1,7.822743E-2,1.9757988E2,-1.9798172E-1,1.6179562E2,-4.757117E-1,1.1218686E1,3.4762598E2,7.1945987E0,-7.267577E-2,1.6050938E-1,7.0659024E-1,1.9209085E0,1.2088176E1,5.3005898E1],"categories":[],"categories_nodes":[],"categories_segments":[],"categories_sizes":[],"default_left":[0,0,0,0,0,0,0,0,0,0,0,0,0,0,0],"id":26,"left_children":[1,3,-1,5,7,9,11,13,-1,-1,-1,-1,-1,-1,-1],"loss_changes":[1.2198184E7,3.0388735E6,0E0,2.1535323E5,1.517842E6,7.121893E4,4.9028344E4,1.8805152E6,0E0,0E0,0E0,0E0,0E0,0E0,0E0],"parents":[2147483647,0,0,1,1,3,3,4,4,5,5,6,6,7,7],"right_children":[2,4,-1,6,8,10,12,14,-1,-1,-1,-1,-1,-1,-1],"split_conditions":[1.2198E4,2.59E2,1.9757988E2,5.7E1,4E0,9E0,1.32E2,2E0,7.1945987E0,-7.267577E-2,1.6050938E-1,7.0659024E-1,1.9209085E0,1.2088176E1,5.3005898E1],"split_indices":[0,0,0,0,2,0,0,2,0,0,0,0,0,0,0],"split_type":[0,0,0,0,0,0,0,0,0,0,0,0,0,0,0],"sum_hessian":[6.8032E4,6.8031E4,1E0,6.7916E4,1.15E2,6.6304E4,1.612E3,3.1E1,8.4E1,5.6461E4,9.843E3,1.36E3,2.52E2,2E1,1.1E1],"tree_param":{"num_deleted":"0","num_feature":"5","num_nodes":"15","size_leaf_vector":"1"}},{"base_weights":[1.0295247E-1,3.325169E-2,1.8967668E2,-1.8714279E-1,1.26879326E2,-5.950933E-1,6.350544E0,2.0111252E1,1.01953384E2,-8.858766E-2,4.4389777E-2,3.8689482E-1,1.3825139E0,-2.0269537E1,8.943221E0],"categories":[],"categories_nodes":[],"categories_segments":[],"categories_sizes":[],"default_left":[0,0,0,0,0,0,0,0,0,0,0,0,0,0,0],"id":27,"left_children":[1,3,-1,5,7,9,11,-1,13,-1,-1,-1,-1,-1,-1],"loss_changes":[1.1242242E7,1.9019101E6,0E0,1.81134E5,3.4059012E5,3.765767E4,6.594742E4,0E0,3.7785094E5,0E0,0E0,0E0,0E0,0E0,0E0],"parents":[2147483647,0,0,1,1,3,3,4,4,5,5,6,6,8,8],"right_children":[2,4,-1,6,8,10,12,-1,14,-1,-1,-1,-1,-1,-1],"split_conditions":[1.2198E4,2.59E2,1.8967668E2,3.3E1,1E0,3E0,1E2,2.0111252E1,2E0,-8.858766E-2,4.4389777E-2,3.8689482E-1,1.3825139E0,-2.0269537E1,8.943221E0],"split_indices":[0,0,0,0,2,0,0,0,2,0,0,0,0,0,0],"split_type":[0,0,0,0,0,0,0,0,0,0,0,0,0,0,0],"sum_hessian":[6.8031E4,6.803E4,1E0,6.7913E4,1.17E2,6.3925E4,3.988E3,1.8E1,9.9E1,4.4225E4,1.97E4,3.504E3,4.84E2,2E0,9.7E1],"tree_param":{"num_deleted":"0","num_feature":"5","num_nodes":"15","size_leaf_vector":"1"}},{"base_weights":[1.093294E-1,-1.7376064E-1,1.5458885E2,-3.7230605E-1,1.1720535E1,2.7726915E1,1.0260374E2,-7.59706E-1,1.9624805E0,9.788189E0,2.7162569E1,2.8918142E0,8.773165E0,-9.20269E-2,-3.6783444E-3,8.086654E-2,2.6457116E-1,6.0858357E-1,9.566479E-1,1.5130622E0,2.3342988E0],"categories":[],"categories_nodes":[],"categories_segments":[],"categories_sizes":[],"default_left":[0,0,0,0,0,0,0,0,0,0,0,0,0,0,0,0,0,0,0,0,0],"id":28,"left_children":[1,3,5,7,9,-1,11,13,15,17,19,-1,-1,-1,-1,-1,-1,-1,-1,-1,-1],"loss_changes":[2.9645495E6,1.5980156E5,1.2020848E6,6.020115E4,3.2885656E4,0E0,4.2490125E4,1.5915434E4,1.21174375E4,4.5893203E3,1.4938672E3,0E0,0E0,0E0,0E0,0E0,0E0,0E0,0E0,0E0,0E0],"parents":[2147483647,0,0,1,1,2,2,3,3,4,4,6,6,7,7,8,8,9,9,10,10],"right_children":[2,4,6,8,10,-1,12,14,16,18,20,-1,-1,-1,-1,-1,-1,-1,-1,-1,-1],"split_conditions":[2.59E2,6.9E1,3E0,1E1,1.66E2,2.7726915E1,4E0,2E0,2.7E1,9E1,1E0,2.8918142E0,8.773165E0,-9.20269E-2,-3.6783444E-3,8.086654E-2,2.6457116E-1,6.0858357E-1,9.566479E-1,1.5130622E0,2.3342988E0],"split_indices":[0,0,2,0,0,0,2,0,0,0,2,0,0,0,0,0,0,0,0,0,0],"split_type":[0,0,0,0,0,0,0,0,0,0,0,0,0,0,0,0,0,0,0,0,0],"sum_hessian":[6.7788E4,6.7665E4,1.23E2,6.6555E4,1.11E3,2.5E1,9.8E1,5.7084E4,9.471E3,9.88E2,1.22E2,1E1,8.8E1,3.6892E4,2.0192E4,5.547E3,3.924E3,4.95E2,4.93E2,2.6E1,9.6E1],"tree_param":{"num_deleted":"0","num_feature":"5","num_nodes":"21","size_leaf_vector":"1"}},{"base_weights":[9.536541E-2,2.8844533E-2,1.8098053E2,-1.6203274E-1,1.0538821E2,-4.5427912E-1,6.44007E0,2.6458224E2,5.5682785E1,-6.986865E-2,6.080016E-2,4.258649E-1,1.4865953E0,1.1524833E1,5.6205803E1,8.024289E0,3.9877472E0],"categories":[],"categories_nodes":[],"categories_segments":[],"categories_sizes":[],"default_left":[0,0,0,0,0,0,0,0,0,0,0,0,0,0,0,0,0],"id":29,"left_children":[1,3,-1,5,7,9,11,13,15,-1,-1,-1,-1,-1,-1,-1,-1],"loss_changes":[1.0235048E7,1.3678469E6,0E0,1.3099843E5,9.585425E5,3.308599E4,3.8927062E4,1.4296215E6,1.9738625E4,0E0,0E0,0E0,0E0,0E0,0E0,0E0,0E0],"parents":[2147483647,0,0,1,1,3,3,4,4,5,5,6,6,7,7,8,8],"right_children":[2,4,-1,6,8,10,12,14,16,-1,-1,-1,-1,-1,-1,-1,-1],"split_conditions":[3.6594E4,7.77E2,1.8098053E2,1.17E2,3E0,1.2E1,3.96E2,2E0,4E0,-6.986865E-2,6.080016E-2,4.258649E-1,1.4865953E0,1.1524833E1,5.6205803E1,8.024289E0,3.9877472E0],"split_indices":[1,1,0,1,2,1,1,2,2,0,0,0,0,0,0,0,0],"split_type":[0,0,0,0,0,0,0,0,0,0,0,0,0,0,0,0,0],"sum_hessian":[6.8015E4,6.8014E4,1E0,6.7892E4,1.22E2,6.5015E4,2.877E3,2.8E1,9.4E1,4.8334E4,1.6681E4,2.636E3,2.41E2,2.3E1,5E0,9E0,8.5E1],"tree_param":{"num_deleted":"0","num_feature":"5","num_nodes":"17","size_leaf_vector":"1"}},{"base_weights":[3.7094377E-2,-2.6789013E-2,1.737413E2,-1.486767E-1,5.2085233E0,-3.1613E-1,9.830777E0,-5.0025675E-2,1.4858262E-1,6.6819227E-1,1.8242806E0],"categories":[],"categories_nodes":[],"categories_segments":[],"categories_sizes":[],"default_left":[0,0,0,0,0,0,0,0,0,0,0],"id":30,"left_children":[1,3,-1,5,-1,7,9,-1,-1,-1,-1],"loss_changes":[9.433093E6,5.397869E5,0E0,1.1341181E5,0E0,4.485444E4,2.1289508E4,0E0,0E0,0E0,0E0],"parents":[2147483647,0,0,1,1,3,3,5,5,6,6],"right_children":[2,4,-1,6,-1,8,10,-1,-1,-1,-1],"split_conditions":[1.2198E4,2.59E2,1.737413E2,6.9E1,5.2085233E0,1.2E1,1.66E2,-5.0025675E-2,1.4858262E-1,6.6819227E-1,1.8242806E0],"split_indices":[0,0,0,0,0,0,0,0,0,0,0],"split_type":[0,0,0,0,0,0,0,0,0,0,0],"sum_hessian":[6.7991E4,6.799E4,1E0,6.7864E4,1.26E2,6.6745E4,1.119E3,5.8433E4,8.312E3,1.006E3,1.13E2],"tree_param":{"num_deleted":"0","num_feature":"5","num_nodes":"11","size_leaf_vector":"1"}},{"base_weights":[1.3187276E-1,7.0773475E-2,1.6679166E2,-1.4114429E-1,1.1938164E2,-4.7728434E-1,4.050134E0,1.8016122E2,8.134155E0,-7.507367E-2,1.4558619E-2,2.4411866E-1,9.050841E-1,9.334185E0,3.3876656E1],"categories":[],"categories_nodes":[],"categories_segments":[],"categories_sizes":[],"default_left":[0,0,0,0,0,0,0,0,0,0,0,0,0,0,0],"id":31,"left_children":[1,3,-1,5,7,9,11,13,-1,-1,-1,-1,-1,-1,-1],"loss_changes":[8.692736E6,1.7255042E6,0E0,9.597887E4,1.11888E5,1.9173305E4,3.6654266E4,3.521735E5,0E0,0E0,0E0,0E0,0E0,0E0,0E0],"parents":[2147483647,0,0,1,1,3,3,4,4,5,5,6,6,7,7],"right_children":[2,4,-1,6,8,10,12,14,-1,-1,-1,-1,-1,-1,-1],"split_conditions":[1.2198E4,2.59E2,1.6679166E2,2.7E1,3E0,2E0,9E1,2E0,8.134155E0,-7.507367E-2,1.4558619E-2,2.4411866E-1,9.050841E-1,9.334185E0,3.3876656E1],"split_indices":[0,0,0,0,2,0,0,2,0,0,0,0,0,0,0],"split_type":[0,0,0,0,0,0,0,0,0,0,0,0,0,0,0],"sum_hessian":[6.8244E4,6.8243E4,1E0,6.8123E4,1.2E2,6.3066E4,5.057E3,2.5E1,9.5E1,3.7109E4,2.5957E4,4.447E3,6.1E2,2.1E1,4E0],"tree_param":{"num_deleted":"0","num_feature":"5","num_nodes":"15","size_leaf_vector":"1"}},{"base_weights":[2.2759354E-1,1.6882862E-1,1.6012E2,-1.2576734E-1,1.6571332E2,-3.1168327E-1,6.577508E0,2.3185152E2,1.0976098E1,-5.3289536E-2,6.9963865E-2,4.535274E-1,1.5428866E0,1.2875842E1,2.7156916E1],"categories":[],"categories_nodes":[],"categories_segments":[],"categories_sizes":[],"default_left":[0,0,0,0,0,0,0,0,0,0,0,0,0,0,0],"id":32,"left_children":[1,3,-1,5,7,9,11,13,-1,-1,-1,-1,-1,-1,-1],"loss_changes":[8.0104175E6,3.3219032E6,0E0,8.4740516E4,1.96364E5,2.7817521E4,2.1075133E4,2.124115E5,0E0,0E0,0E0,0E0,0E0,0E0,0E0],"parents":[2147483647,0,0,1,1,3,3,4,4,5,5,6,6,7,7],"right_children":[2,4,-1,6,8,10,12,14,-1,-1,-1,-1,-1,-1,-1],"split_conditions":[1.2198E4,2.59E2,1.6012E2,5.1E1,4E0,5E0,1.66E2,2E0,1.0976098E1,-5.3289536E-2,6.9963865E-2,4.535274E-1,1.5428866E0,1.2875842E1,2.7156916E1],"split_indices":[0,0,0,0,2,0,0,2,0,0,0,0,0,0,0],"split_type":[0,0,0,0,0,0,0,0,0,0,0,0,0,0,0],"sum_hessian":[6.8115E4,6.8114E4,1E0,6.7994E4,1.2E2,6.616E4,1.834E3,3.4E1,8.6E1,5.094E4,1.522E4,1.713E3,1.21E2,2.2E1,1.2E1],"tree_param":{"num_deleted":"0","num_feature":"5","num_nodes":"15","size_leaf_vector":"1"}},{"base_weights":[-2.9409891E-2,-8.592908E-2,1.537152E2,-2.410251E-1,9.38095E0,-4.2384985E-1,2.2443514E0,1.4804835E1,3.644942E0,-6.4804874E-2,1.1126996E-2,1.5071617E-1,2.4872273E-1,6.302313E-1,8.22436E0,7.851801E-1,-2.0573945E0],"categories":[],"categories_nodes":[],"categories_segments":[],"categories_sizes":[],"default_left":[0,0,0,0,0,0,0,0,0,0,0,0,0,0,0,0,0],"id":33,"left_children":[1,3,-1,5,7,9,11,13,15,-1,-1,-1,-1,-1,-1,-1,-1],"loss_changes":[7.384306E6,9.98347E4,0E0,3.0398621E4,3.4044188E4,1.3548182E4,1.4226602E3,3.4237734E5,9.6991984E4,0E0,0E0,0E0,0E0,0E0,0E0,0E0,0E0],"parents":[2147483647,0,0,1,1,3,3,4,4,5,5,6,6,7,7,8,8],"right_children":[2,4,-1,6,8,10,12,14,16,-1,-1,-1,-1,-1,-1,-1,-1],"split_conditions":[1.2198E4,7.3E1,1.537152E2,2.4E1,4E0,2E0,4.3E1,2.59E2,2.59E2,-6.4804874E-2,1.1126996E-2,1.5071617E-1,2.4872273E-1,6.302313E-1,8.22436E0,7.851801E-1,-2.0573945E0],"split_indices":[0,0,0,0,2,0,0,0,0,0,0,0,0,0,0,0,0],"split_type":[0,0,0,0,0,0,0,0,0,0,0,0,0,0,0,0,0],"sum_hessian":[6.7993E4,6.7992E4,1E0,6.6897E4,1.095E3,6.2314E4,4.583E3,5.62E2,5.33E2,3.6958E4,2.5356E4,3.237E3,1.346E3,5.22E2,4E1,4.41E2,9.2E1],"tree_param":{"num_deleted":"0","num_feature":"5","num_nodes":"17","size_leaf_vector":"1"}},{"base_weights":[3.7418492E-2,-1.6930893E-2,1.475666E2,-1.0536966E-1,3.9280636E0,-3.8745773E-1,3.1436393E0,-5.9620626E-2,1.0698277E-2,1.9554815E-1,8.2080406E-1],"categories":[],"categories_nodes":[],"categories_segments":[],"categories_sizes":[],"default_left":[0,0,0,0,0,0,0,0,0,0,0],"id":34,"left_children":[1,3,-1,5,-1,7,9,-1,-1,-1,-1],"loss_changes":[6.804894E6,2.948612E5,0E0,6.210096E4,0E0,1.1626225E4,2.6912262E4,0E0,0E0,0E0,0E0],"parents":[2147483647,0,0,1,1,3,3,5,5,6,6],"right_children":[2,4,-1,6,-1,8,10,-1,-1,-1,-1],"split_conditions":[1.2198E4,2.59E2,1.475666E2,2.5E1,3.9280636E0,2E0,1E2,-5.9620626E-2,1.0698277E-2,1.9554815E-1,8.2080406E-1],"split_indices":[0,0,0,0,0,0,0,0,0,0,0],"split_type":[0,0,0,0,0,0,0,0,0,0,0],"sum_hessian":[6.7878E4,6.7877E4,1E0,6.7756E4,1.21E2,6.2344E4,5.412E3,3.6966E4,2.5378E4,4.929E3,4.83E2],"tree_param":{"num_deleted":"0","num_feature":"5","num_nodes":"11","size_leaf_vector":"1"}},{"base_weights":[4.8305675E-2,-3.8664816E-3,1.4166394E2,-9.715901E-2,5.497224E1,-2.0615815E-1,7.362345E0,-2.3338099E1,1.1395104E2,-3.7694443E-2,8.557932E-2,4.815856E-1,1.373404E0,3.0248041E1,6.666798E0],"categories":[],"categories_nodes":[],"categories_segments":[],"categories_sizes":[],"default_left":[0,0,0,0,0,0,0,0,0,0,0,0,0,0,0],"id":35,"left_children":[1,3,-1,5,7,9,11,-1,13,-1,-1,-1,-1,-1,-1],"loss_changes":[6.271303E6,3.4816266E5,0E0,5.510229E4,2.3847462E6,2.258602E4,1.2744457E4,0E0,7.6912575E5,0E0,0E0,0E0,0E0,0E0,0E0],"parents":[2147483647,0,0,1,1,3,3,4,4,5,5,6,6,8,8],"right_children":[2,4,-1,6,8,10,12,-1,14,-1,-1,-1,-1,-1,-1],"split_conditions":[1.2198E4,2.59E2,1.4166394E2,7.3E1,1E0,8E0,1.66E2,-2.3338099E1,3E0,-3.7694443E-2,8.557932E-2,4.815856E-1,1.373404E0,3.0248041E1,6.666798E0],"split_indices":[0,0,0,0,2,0,0,0,2,0,0,0,0,0,0],"split_type":[0,0,0,0,0,0,0,0,0,0,0,0,0,0,0],"sum_hessian":[6.7882E4,6.7881E4,1E0,6.7767E4,1.14E2,6.6792E4,9.75E2,1.6E1,9.8E1,5.5305E4,1.1487E4,8.59E2,1.16E2,9E0,8.9E1],"tree_param":{"num_deleted":"0","num_feature":"5","num_nodes":"15","size_leaf_vector":"1"}},{"base_weights":[1.4003847E-2,-3.611808E-2,1.3599738E2,-1.1750185E-1,2.2508001E1,-3.3180436E-1,2.4484334E0,-2.698992E1,3.414383E1,-5.183563E-2,1.0175427E-2,1.4766915E-1,4.4227368E-1,9.909171E-1,-7.289423E0,8.881475E0,2.067168E0],"categories":[],"categories_nodes":[],"categories_segments":[],"categories_sizes":[],"default_left":[0,0,0,0,0,0,0,0,0,0,0,0,0,0,0,0,0],"id":36,"left_children":[1,3,-1,5,7,9,11,13,15,-1,-1,-1,-1,-1,-1,-1,-1],"loss_changes":[5.7798525E6,1.2445757E5,0E0,3.716763E4,1.4145319E5,9.052055E3,9.659061E3,1.1980944E5,1.2353147E5,0E0,0E0,0E0,0E0,0E0,0E0,0E0,0E0],"parents":[2147483647,0,0,1,1,3,3,4,4,5,5,6,6,7,7,8,8],"right_children":[2,4,-1,6,8,10,12,14,16,-1,-1,-1,-1,-1,-1,-1,-1],"split_conditions":[1.2198E4,1.66E2,1.3599738E2,2.5E1,1E0,2E0,7.3E1,2.59E2,3E0,-5.183563E-2,1.0175427E-2,1.4766915E-1,4.4227368E-1,9.909171E-1,-7.289423E0,8.881475E0,2.067168E0],"split_indices":[0,0,0,0,2,0,0,0,2,0,0,0,0,0,0,0,0],"split_type":[0,0,0,0,0,0,0,0,0,0,0,0,0,0,0,0,0],"sum_hessian":[6.7833E4,6.7832E4,1E0,6.7589E4,2.43E2,6.238E4,5.209E3,4.6E1,1.97E2,3.6938E4,2.5442E4,4.358E3,8.51E2,2.9E1,1.7E1,1.8E1,1.79E2],"tree_param":{"num_deleted":"0","num_feature":"5","num_nodes":"17","size_leaf_vector":"1"}},{"base_weights":[-2.8410705E-2,-7.638057E-2,1.305575E2,-2.3609893E-1,3.7652974E0,-5.2712005E-1,3.7525144E-1,6.81361E0,1.5816405E-1,-4.7688894E-2,-1.3820602E-2,1.8382419E-2,1.05602704E-1,2.6028794E-1,1.7018951E1,3.398224E-1,-3.9970458E0],"categories":[],"categories_nodes":[],"categories_segments":[],"categories_sizes":[],"default_left":[0,0,0,0,0,0,0,0,0,0,0,0,0,0,0,0,0],"id":37,"left_children":[1,3,-1,5,7,9,11,13,15,-1,-1,-1,-1,-1,-1,-1,-1],"loss_changes":[5.326986E6,4.1750543E4,0E0,1.1622909E4,2.986316E4,1.0819336E3,2.8953909E3,1.078415E6,2.5540814E5,0E0,0E0,0E0,0E0,0E0,0E0,0E0,0E0],"parents":[2147483647,0,0,1,1,3,3,4,4,5,5,6,6,7,7,8,8],"right_children":[2,4,-1,6,8,10,12,14,16,-1,-1,-1,-1,-1,-1,-1,-1],"split_conditions":[1.2198E4,4.1E1,1.305575E2,3E0,3E0,2E0,2.5E1,2.59E2,2.59E2,-4.7688894E-2,-1.3820602E-2,1.8382419E-2,1.05602704E-1,2.6028794E-1,1.7018951E1,3.398224E-1,-3.9970458E0],"split_indices":[0,0,0,0,2,0,0,0,0,0,0,0,0,0,0,0,0],"split_type":[0,0,0,0,0,0,0,0,0,0,0,0,0,0,0,0,0],"sum_hessian":[6.8042E4,6.8041E4,1E0,6.5326E4,2.715E3,4.4258E4,2.1068E4,1.471E3,1.244E3,3.7045E4,7.213E3,1.8258E4,2.81E3,1.447E3,2.4E1,1.151E3,9.3E1],"tree_param":{"num_deleted":"0","num_feature":"5","num_nodes":"17","size_leaf_vector":"1"}},{"base_weights":[4.977598E-2,-7.5889155E-2,6.722086E1,-1.7371078E-1,5.260655E0,-3.639044E1,9.048481E1,-4.2016202E-1,6.2121755E-1,4.32447E0,1.38219185E1,-3.5493944E0,2.2364843E-1,1.9616339E1,7.851011E1,-4.387389E-2,-6.1425287E-3,2.619076E-2,1.1497172E-1,2.9641628E-1,5.228647E-1,6.4343804E-1,1.3121504E0,1.514539E0,6.7457733E0],"categories":[],"categories_nodes":[],"categories_segments":[],"categories_sizes":[],"default_left":[0,0,0,0,0,0,0,0,0,0,0,0,0,0,0,0,0,0,0,0,0,0,0,0,0],"id":38,"left_children":[1,3,5,7,9,11,13,15,17,19,21,-1,-1,-1,23,-1,-1,-1,-1,-1,-1,-1,-1,-1,-1],"loss_changes":[5.7409025E5,3.5438883E4,3.0941456E5,1.3060477E4,9.734465E3,7.626119E3,1.7343175E5,2.2411943E3,3.7820166E3,1.4862402E3,1.6572148E3,0E0,0E0,0E0,3.2338438E4,0E0,0E0,0E0,0E0,0E0,0E0,0E0,0E0,0E0,0E0],"parents":[2147483647,0,0,1,1,2,2,3,3,4,4,5,5,6,6,7,7,8,8,9,9,10,10,14,14],"right_children":[2,4,6,8,10,12,14,16,18,20,22,-1,-1,-1,24,-1,-1,-1,-1,-1,-1,-1,-1,-1,-1],"split_conditions":[2.59E2,6.6E1,2E0,5E0,1.66E2,1E0,3E0,2E0,2.5E1,1.13E2,3E0,-3.5493944E0,2.2364843E-1,1.9616339E1,4E0,-4.387389E-2,-6.1425287E-3,2.619076E-2,1.1497172E-1,2.9641628E-1,5.228647E-1,6.4343804E-1,1.3121504E0,1.514539E0,6.7457733E0],"split_indices":[0,0,2,0,0,2,2,0,0,0,2,0,0,0,2,0,0,0,0,0,0,0,0,0,0],"split_type":[0,0,0,0,0,0,0,0,0,0,0,0,0,0,0,0,0,0,0,0,0,0,0,0,0],"sum_hessian":[6.801E4,6.7884E4,1.26E2,6.6663E4,1.221E3,2.3E1,1.03E2,5.0887E4,1.5776E4,1.102E3,1.19E2,1.9E1,4E0,6E0,9.7E1,3.7048E4,1.3839E4,1.16E4,4.176E3,8.63E2,2.39E2,3.8E1,8.1E1,9E0,8.8E1],"tree_param":{"num_deleted":"0","num_feature":"5","num_nodes":"25","size_leaf_vector":"1"}},{"base_weights":[8.542702E-2,3.963898E-2,1.24550545E2,-7.0558324E-2,6.0362568E1,-1.7052199E-1,4.151519E0,1.1328357E1,4.4313038E1,-3.093255E-2,4.309788E-2,2.790273E-1,9.4901794E-1,-2.2759369E1,5.949112E0],"categories":[],"categories_nodes":[],"categories_segments":[],"categories_sizes":[],"default_left":[0,0,0,0,0,0,0,0,0,0,0,0,0,0,0],"id":39,"left_children":[1,3,-1,5,7,9,11,-1,13,-1,-1,-1,-1,-1,-1],"loss_changes":[4.8473725E6,4.520424E5,0E0,2.864933E4,1.5540794E5,1.0165048E4,7.993498E3,0E0,1.0586482E6,0E0,0E0,0E0,0E0,0E0,0E0],"parents":[2147483647,0,0,1,1,3,3,4,4,5,5,6,6,8,8],"right_children":[2,4,-1,6,8,10,12,-1,14,-1,-1,-1,-1,-1,-1],"split_conditions":[1.2198E4,2.59E2,1.24550545E2,5.7E1,1E0,5E0,1.66E2,1.1328357E1,3E0,-3.093255E-2,4.309788E-2,2.790273E-1,9.4901794E-1,-2.2759369E1,5.949112E0],"split_indices":[0,0,0,0,2,0,0,0,2,0,0,0,0,0,0],"split_type":[0,0,0,0,0,0,0,0,0,0,0,0,0,0,0],"sum_hessian":[6.8002E4,6.8001E4,1E0,6.7878E4,1.23E2,6.6309E4,1.569E3,1.9E1,1.04E2,5.0822E4,1.5487E4,1.446E3,1.23E2,8E0,9.6E1],"tree_param":{"num_deleted":"0","num_feature":"5","num_nodes":"15","size_leaf_vector":"1"}},{"base_weights":[1.4548372E-2,-2.9281516E-2,1.1956851E2,-8.247028E-2,1.4369945E1,-2.3625183E-1,1.850348E0,8.461216E1,-8.626829E0,-3.7889533E-2,8.285503E-3,1.1253682E-1,3.441229E-1,5.766471E-1,1.4267631E1,8.971749E-1,-2.1582615E0],"categories":[],"categories_nodes":[],"categories_segments":[],"categories_sizes":[],"default_left":[0,0,0,0,0,0,0,0,0,0,0,0,0,0,0,0,0],"id":40,"left_children":[1,3,-1,5,7,9,11,13,15,-1,-1,-1,-1,-1,-1,-1,-1],"loss_changes":[4.467741E6,5.2234004E4,0E0,2.0197336E4,4.061813E5,5.077178E3,5.4398457E3,4.4854512E5,6.948542E4,0E0,0E0,0E0,0E0,0E0,0E0,0E0,0E0],"parents":[2147483647,0,0,1,1,3,3,4,4,5,5,6,6,7,7,8,8],"right_children":[2,4,-1,6,8,10,12,14,16,-1,-1,-1,-1,-1,-1,-1,-1],"split_conditions":[1.2198E4,1.66E2,1.1956851E2,2.7E1,3E0,2E0,7.6E1,2.59E2,2.59E2,-3.7889533E-2,8.285503E-3,1.1253682E-1,3.441229E-1,5.766471E-1,1.4267631E1,8.971749E-1,-2.1582615E0],"split_indices":[0,0,0,0,2,0,0,0,0,0,0,0,0,0,0,0,0],"split_type":[0,0,0,0,0,0,0,0,0,0,0,0,0,0,0,0,0],"sum_hessian":[6.82E4,6.8199E4,1E0,6.7949E4,2.5E2,6.2942E4,5.007E3,6.1E1,1.89E2,3.7057E4,2.5885E4,4.241E3,7.66E2,3.4E1,2.7E1,9.1E1,9.8E1],"tree_param":{"num_deleted":"0","num_feature":"5","num_nodes":"17","size_leaf_vector":"1"}},{"base_weights":[1.5057337E-1,1.08363755E-1,1.1478578E2,-5.892581E-2,8.94902E1,-1.3412894E-1,4.3501573E0,1.713308E2,6.3523785E1,-2.2425331E-2,5.9798297E-2,2.864741E-1,8.6767644E-1,5.4235406E0,4.593423E1,-2.4616618E0,5.9670997E0],"categories":[],"categories_nodes":[],"categories_segments":[],"categories_sizes":[],"default_left":[0,0,0,0,0,0,0,0,0,0,0,0,0,0,0,0,0],"id":41,"left_children":[1,3,-1,5,7,9,11,13,15,-1,-1,-1,-1,-1,-1,-1,-1],"loss_changes":[4.1166868E6,1.0165162E6,0E0,2.2500059E4,2.5900488E5,8.598969E3,5.6474844E3,1.2123558E6,1.0454497E5,0E0,0E0,0E0,0E0,0E0,0E0,0E0,0E0],"parents":[2147483647,0,0,1,1,3,3,4,4,5,5,6,6,7,7,8,8],"right_children":[2,4,-1,6,8,10,12,14,16,-1,-1,-1,-1,-1,-1,-1,-1],"split_conditions":[3.6594E4,7.77E2,1.1478578E2,2.07E2,3E0,3E1,4.98E2,2E0,4E0,-2.2425331E-2,5.9798297E-2,2.864741E-1,8.6767644E-1,5.4235406E0,4.593423E1,-2.4616618E0,5.9670997E0],"split_indices":[1,1,0,1,2,1,1,2,2,0,0,0,0,0,0,0,0],"split_type":[0,0,0,0,0,0,0,0,0,0,0,0,0,0,0,0,0],"sum_hessian":[6.7982E4,6.7981E4,1E0,6.7855E4,1.26E2,6.6718E4,1.137E3,2.9E1,9.7E1,5.7229E4,9.489E3,1.018E3,1.19E2,2.4E1,5E0,1E1,8.7E1],"tree_param":{"num_deleted":"0","num_feature":"5","num_nodes":"17","size_leaf_vector":"1"}},{"base_weights":[5.708744E-2,1.6535703E-2,1.10194336E2,-5.5848625E-2,4.4647243E1,-1.7891574E-1,2.2279708E0,-1.4858319E2,9.517276E0,-2.9070769E-2,1.834464E-2,1.4525925E-1,6.0958403E-1,7.748821E0,-3.628322E1],"categories":[],"categories_nodes":[],"categories_segments":[],"categories_sizes":[],"default_left":[0,0,0,0,0,0,0,0,0,0,0,0,0,0,0],"id":42,"left_children":[1,3,-1,5,7,9,11,13,-1,-1,-1,-1,-1,-1,-1],"loss_changes":[3.7944195E6,2.1946438E5,0E0,1.906322E4,1.5973464E6,4.84646E3,7.6944004E3,2.364271E6,0E0,0E0,0E0,0E0,0E0,0E0,0E0],"parents":[2147483647,0,0,1,1,3,3,4,4,5,5,6,6,7,7],"right_children":[2,4,-1,6,8,10,12,14,-1,-1,-1,-1,-1,-1,-1],"split_conditions":[1.2198E4,2.59E2,1.10194336E2,3.6E1,4E0,3E0,1.32E2,1E0,9.517276E0,-2.9070769E-2,1.834464E-2,1.4525925E-1,6.0958403E-1,7.748821E0,-3.628322E1],"split_indices":[0,0,0,0,2,0,0,2,0,0,0,0,0,0,0],"split_type":[0,0,0,0,0,0,0,0,0,0,0,0,0,0,0],"sum_hessian":[6.7933E4,6.7932E4,1E0,6.7823E4,1.09E2,6.4356E4,3.467E3,3E1,7.9E1,4.4326E4,2.003E4,3.222E3,2.45E2,1.7E1,1.3E1],"tree_param":{"num_deleted":"0","num_feature":"5","num_nodes":"15","size_leaf_vector":"1"}},{"base_weights":[1.0077588E-1,6.1899535E-2,1.0578656E2,-5.191053E-2,6.1392387E1,-1.6904636E-1,1.9395674E0,1.142286E2,3.1190958E0,-3.0738886E-2,1.0042103E-2,1.21731795E-1,4.6041408E-1,1.4979619E0,1.7119856E1],"categories":[],"categories_nodes":[],"categories_segments":[],"categories_sizes":[],"default_left":[0,0,0,0,0,0,0,0,0,0,0,0,0,0,0],"id":43,"left_children":[1,3,-1,5,7,9,11,13,-1,-1,-1,-1,-1,-1,-1],"loss_changes":[3.496694E6,4.7481953E5,0E0,1.5839592E4,1.446959E5,4.065122E3,6.0061455E3,3.4854394E5,0E0,0E0,0E0,0E0,0E0,0E0,0E0],"parents":[2147483647,0,0,1,1,3,3,4,4,5,5,6,6,7,7],"right_children":[2,4,-1,6,8,10,12,14,-1,-1,-1,-1,-1,-1,-1],"split_conditions":[3.6594E4,7.77E2,1.0578656E2,1.02E2,4E0,6E0,3.39E2,1E0,3.1190958E0,-3.0738886E-2,1.0042103E-2,1.21731795E-1,4.6041408E-1,1.4979619E0,1.7119856E1],"split_indices":[1,1,0,1,2,1,1,2,0,0,0,0,0,0,0],"split_type":[0,0,0,0,0,0,0,0,0,0,0,0,0,0,0],"sum_hessian":[6.8025E4,6.8024E4,1E0,6.7899E4,1.25E2,6.4128E4,3.771E3,3.6E1,8.9E1,3.7057E4,2.7071E4,3.4E3,3.71E2,1.9E1,1.7E1],"tree_param":{"num_deleted":"0","num_feature":"5","num_nodes":"15","size_leaf_vector":"1"}},{"base_weights":[6.2365904E-2,2.4969889E-2,1.01555115E2,-4.8954897E-2,3.916044E1,-1.333893E-1,2.3243692E0,-1.106249E1,6.945343E1,-2.484783E-2,1.884314E-2,1.495593E-1,5.0488245E-1,2.6961782E1,3.3819048E0],"categories":[],"categories_nodes":[],"categories_segments":[],"categories_sizes":[],"default_left":[0,0,0,0,0,0,0,0,0,0,0,0,0,0,0],"id":44,"left_children":[1,3,-1,5,7,9,11,-1,13,-1,-1,-1,-1,-1,-1],"loss_changes":[3.2227288E6,1.964132E5,0E0,1.3579352E4,6.976344E5,4.2781016E3,4.2098994E3,0E0,7.85719E5,0E0,0E0,0E0,0E0,0E0,0E0],"parents":[2147483647,0,0,1,1,3,3,4,4,5,5,6,6,8,8],"right_children":[2,4,-1,6,8,10,12,-1,14,-1,-1,-1,-1,-1,-1],"split_conditions":[1.2198E4,2.59E2,1.01555115E2,4.3E1,1E0,3E0,1.32E2,-1.106249E1,3E0,-2.484783E-2,1.884314E-2,1.495593E-1,5.0488245E-1,2.6961782E1,3.3819048E0],"split_indices":[0,0,0,0,2,0,0,0,2,0,0,0,0,0,0],"split_type":[0,0,0,0,0,0,0,0,0,0,0,0,0,0,0],"sum_hessian":[6.789E4,6.7889E4,1E0,6.7762E4,1.27E2,6.5435E4,2.327E3,1.8E1,1.09E2,4.4203E4,2.1232E4,2.09E3,2.37E2,9E0,1E2],"tree_param":{"num_deleted":"0","num_feature":"5","num_nodes":"15","size_leaf_vector":"1"}},{"base_weights":[1.6633211E-1,1.3055313E-1,9.749293E1,-3.9527047E-2,9.7316696E1,-9.41828E-2,3.7216597E0,1.7975113E2,6.997697E1,-1.5564738E-2,5.6009997E-2,2.439866E-1,6.6760266E-1,6.787928E0,4.2352055E1,2.0140586E0,5.9669724E0],"categories":[],"categories_nodes":[],"categories_segments":[],"categories_sizes":[],"default_left":[0,0,0,0,0,0,0,0,0,0,0,0,0,0,0,0,0],"id":45,"left_children":[1,3,-1,5,7,9,11,13,15,-1,-1,-1,-1,-1,-1,-1,-1],"loss_changes":[2.9695488E6,1.1259395E6,0E0,1.3978938E4,2.55616E5,5.344104E3,2.9998975E3,9.173719E5,1.6917562E4,0E0,0E0,0E0,0E0,0E0,0E0,0E0,0E0],"parents":[2147483647,0,0,1,1,3,3,4,4,5,5,6,6,7,7,8,8],"right_children":[2,4,-1,6,8,10,12,14,16,-1,-1,-1,-1,-1,-1,-1,-1],"split_conditions":[3.6594E4,7.77E2,9.749293E1,2.19E2,3E0,4.2E1,4.98E2,2E0,4E0,-1.5564738E-2,5.6009997E-2,2.439866E-1,6.6760266E-1,6.787928E0,4.2352055E1,2.0140586E0,5.9669724E0],"split_indices":[1,1,0,1,2,1,1,2,2,0,0,0,0,0,0,0,0],"split_type":[0,0,0,0,0,0,0,0,0,0,0,0,0,0,0,0,0],"sum_hessian":[6.8117E4,6.8116E4,1E0,6.7998E4,1.18E2,6.7025E4,9.73E2,2.8E1,9E1,5.9506E4,7.519E3,8.51E2,1.22E2,2.3E1,5E0,9E0,8.1E1],"tree_param":{"num_deleted":"0","num_feature":"5","num_nodes":"17","size_leaf_vector":"1"}},{"base_weights":[8.730152E-3,-2.5616353E-2,9.35932E1,-8.380973E-2,3.8925688E0,-1.788171E-1,6.600403E-1,2.810649E0,7.1141033E0,-2.5046932E-2,3.4138062E-3,3.462524E-2,8.2270965E-2,2.0310885E-1,3.2858315E-1,4.36744E-1,7.044433E-1],"categories":[],"categories_nodes":[],"categories_segments":[],"categories_sizes":[],"default_left":[0,0,0,0,0,0,0,0,0,0,0,0,0,0,0,0,0],"id":46,"left_children":[1,3,-1,5,7,9,11,13,15,-1,-1,-1,-1,-1,-1,-1,-1],"loss_changes":[2.737442E6,1.5533444E4,0E0,4.7441367E3,3.4549912E3,1.7702764E3,6.359075E2,2.5317578E2,6.5167676E2,0E0,0E0,0E0,0E0,0E0,0E0,0E0,0E0],"parents":[2147483647,0,0,1,1,3,3,4,4,5,5,6,6,7,7,8,8],"right_children":[2,4,-1,6,8,10,12,14,16,-1,-1,-1,-1,-1,-1,-1,-1],"split_conditions":[1.2198E4,7.6E1,9.35932E1,1.4E1,1.66E2,2E0,3.4E1,1.32E2,2.59E2,-2.5046932E-2,3.4138062E-3,3.462524E-2,8.2270965E-2,2.0310885E-1,3.2858315E-1,4.36744E-1,7.044433E-1],"split_indices":[0,0,0,0,0,0,0,0,0,0,0,0,0,0,0,0,0],"split_type":[0,0,0,0,0,0,0,0,0,0,0,0,0,0,0,0,0],"sum_hessian":[6.8124E4,6.8123E4,1E0,6.7127E4,9.96E2,5.9525E4,7.602E3,7.47E2,2.49E2,3.7059E4,2.2466E4,4.703E3,2.899E3,6.2E2,1.27E2,1.28E2,1.21E2],"tree_param":{"num_deleted":"0","num_feature":"5","num_nodes":"17","size_leaf_vector":"1"}},{"base_weights":[-5.4111246E-2,-8.712504E-2,8.984949E1,-3.679088E-2,-2.9060091E1,-9.21172E-2,2.2864125E0,5.700459E1,-5.2831383E0,-1.9948853E-2,1.7858867E-2,1.5594894E-1,5.218736E-1,1.8001794E0,9.305301E0],"categories":[],"categories_nodes":[],"categories_segments":[],"categories_sizes":[],"default_left":[0,0,0,0,0,0,0,0,0,0,0,0,0,0,0],"id":47,"left_children":[1,3,-1,5,7,9,11,13,-1,-1,-1,-1,-1,-1,-1],"loss_changes":[2.5231082E6,9.922515E4,0E0,8.730773E3,3.793111E5,3.289919E3,2.2436602E3,7.105273E4,0E0,0E0,0E0,0E0,0E0,0E0,0E0],"parents":[2147483647,0,0,1,1,3,3,4,4,5,5,6,6,7,7],"right_children":[2,4,-1,6,8,10,12,14,-1,-1,-1,-1,-1,-1,-1],"split_conditions":[3.6594E4,7.77E2,8.984949E1,1.71E2,4E0,9E0,4.98E2,2E0,-5.2831383E0,-1.9948853E-2,1.7858867E-2,1.5594894E-1,5.218736E-1,1.8001794E0,9.305301E0],"split_indices":[1,1,0,1,2,1,1,2,0,0,0,0,0,0,0],"split_type":[0,0,0,0,0,0,0,0,0,0,0,0,0,0,0],"sum_hessian":[6.8041E4,6.804E4,1E0,6.7923E4,1.17E2,6.6344E4,1.579E3,3.5E1,8.2E1,4.427E4,2.2074E4,1.464E3,1.15E2,2.3E1,1.2E1],"tree_param":{"num_deleted":"0","num_feature":"5","num_nodes":"15","size_leaf_vector":"1"}},{"base_weights":[7.862944E-2,4.6912953E-2,8.625551E1,-3.15445E-2,4.333527E1,-7.3895946E-2,2.8530438E0,-3.5810387E1,6.38909E1,-1.1215228E-2,5.6559708E-2,1.8371639E-1,5.2125055E-1,-3.2293172E0,-6.88125E-1,1.8121841E1,3.2579603E0],"categories":[],"categories_nodes":[],"categories_segments":[],"categories_sizes":[],"default_left":[0,0,0,0,0,0,0,0,0,0,0,0,0,0,0,0,0],"id":48,"left_children":[1,3,-1,5,7,9,11,13,15,-1,-1,-1,-1,-1,-1,-1,-1],"loss_changes":[2.3247335E6,2.309052E5,0E0,8.291039E3,2.023953E5,3.4626025E3,1.9868989E3,2.8758867E3,3.5999975E5,0E0,0E0,0E0,0E0,0E0,0E0,0E0,0E0],"parents":[2147483647,0,0,1,1,3,3,4,4,5,5,6,6,7,7,8,8],"right_children":[2,4,-1,6,8,10,12,14,16,-1,-1,-1,-1,-1,-1,-1,-1],"split_conditions":[1.2198E4,2.59E2,8.625551E1,7.3E1,2E0,2.1E1,1.66E2,1E0,4E0,-1.1215228E-2,5.6559708E-2,1.8371639E-1,5.2125055E-1,-3.2293172E0,-6.88125E-1,1.8121841E1,3.2579603E0],"split_indices":[0,0,0,0,2,0,0,2,2,0,0,0,0,0,0,0,0],"split_type":[0,0,0,0,0,0,0,0,0,0,0,0,0,0,0,0,0],"sum_hessian":[6.7987E4,6.7986E4,1E0,6.7864E4,1.22E2,6.6883E4,9.81E2,2.5E1,9.7E1,6.165E4,5.233E3,8.53E2,1.28E2,2.1E1,4E0,1.1E1,8.6E1],"tree_param":{"num_deleted":"0","num_feature":"5","num_nodes":"17","size_leaf_vector":"1"}},{"base_weights":[1.176494E-1,8.712227E-2,8.2805275E1,-3.207221E-2,5.129174E0,-1.1447525E-1,1.1268961E0,-2.0550169E-2,6.7969644E-3,6.5485805E-2,2.4470642E-1],"categories":[],"categories_nodes":[],"categories_segments":[],"categories_sizes":[],"default_left":[0,0,0,0,0,0,0,0,0,0,0],"id":49,"left_children":[1,3,-1,5,-1,7,9,-1,-1,-1,-1],"loss_changes":[2.1422992E6,5.175021E5,0E0,6.4641216E3,0E0,1.7946902E3,2.6738003E3,0E0,0E0,0E0,0E0],"parents":[2147483647,0,0,1,1,3,3,5,5,6,6],"right_children":[2,4,-1,6,-1,8,10,-1,-1,-1,-1],"split_conditions":[1.2198E4,2.59E2,8.2805275E1,3.1E1,5.129174E0,2E0,9E1,-2.0550169E-2,6.7969644E-3,6.5485805E-2,2.4470642E-1],"split_indices":[0,0,0,0,0,0,0,0,0,0,0],"split_type":[0,0,0,0,0,0,0,0,0,0,0],"sum_hessian":[6.7809E4,6.7808E4,1E0,6.7683E4,1.25E2,6.3191E4,4.492E3,3.6867E4,2.6324E4,3.875E3,6.17E2],"tree_param":{"num_deleted":"0","num_feature":"5","num_nodes":"11","size_leaf_vector":"1"}},{"base_weights":[5.460278E-3,-2.3719968E-2,7.949304E1,-6.30254E-2,2.429488E0,-1.5433832E-1,3.765413E-1,-2.2967432E0,4.916707E0,-1.8906208E-2,9.4715744E-4,1.6494596E-2,5.215563E-2,1.7101134E-1,-6.764965E0,2.5931213E0,8.3021656E-2],"categories":[],"categories_nodes":[],"categories_segments":[],"categories_sizes":[],"default_left":[0,0,0,0,0,0,0,0,0,0,0,0,0,0,0,0,0],"id":50,"left_children":[1,3,-1,5,7,9,11,13,15,-1,-1,-1,-1,-1,-1,-1,-1],"loss_changes":[1.974769E6,6.5671367E3,0E0,2.6905962E3,1.2636347E4,7.562201E2,5.408247E2,1.3552012E5,7.505522E4,0E0,0E0,0E0,0E0,0E0,0E0,0E0,0E0],"parents":[2147483647,0,0,1,1,3,3,4,4,5,5,6,6,7,7,8,8],"right_children":[2,4,-1,6,8,10,12,14,16,-1,-1,-1,-1,-1,-1,-1,-1],"split_conditions":[3.6594E4,2.19E2,7.949304E1,2.4E1,1E0,6E0,7.5E1,7.77E2,3E0,-1.8906208E-2,9.4715744E-4,1.6494596E-2,5.215563E-2,1.7101134E-1,-6.764965E0,2.5931213E0,8.3021656E-2],"split_indices":[1,1,0,1,2,1,1,1,2,0,0,0,0,0,0,0,0],"split_type":[0,0,0,0,0,0,0,0,0,0,0,0,0,0,0,0,0],"sum_hessian":[6.8105E4,6.8104E4,1E0,6.7031E4,1.073E3,5.5502E4,1.1529E4,3.7E2,7.03E2,3.7165E4,1.8337E4,7.124E3,4.405E3,3.52E2,1.8E1,8.6E1,6.17E2],"tree_param":{"num_deleted":"0","num_feature":"5","num_nodes":"17","size_leaf_vector":"1"}},{"base_weights":[-7.399221E-2,-1.02011345E-1,7.631332E1,-2.8537884E-2,-4.0052536E1,-1.0414261E-1,8.476784E-1,2.2685003E1,-5.3350883E0,-1.739375E-2,4.851635E-3,5.7489224E-2,2.8023908E-1,-6.2017426E0,1.6000425E1],"categories":[],"categories_nodes":[],"categories_segments":[],"categories_sizes":[],"default_left":[0,0,0,0,0,0,0,0,0,0,0,0,0,0,0],"id":51,"left_children":[1,3,-1,5,7,9,11,13,-1,-1,-1,-1,-1,-1,-1],"loss_changes":[1.8202492E6,1.9987247E5,0E0,4.5027695E3,2.1039798E5,1.1680303E3,1.8477341E3,6.9071544E5,0E0,0E0,0E0,0E0,0E0,0E0,0E0],"parents":[2147483647,0,0,1,1,3,3,4,4,5,5,6,6,7,7],"right_children":[2,4,-1,6,8,10,12,14,-1,-1,-1,-1,-1,-1,-1],"split_conditions":[3.6594E4,7.77E2,7.631332E1,7.5E1,4E0,6E0,3.96E2,2E0,-5.3350883E0,-1.739375E-2,4.851635E-3,5.7489224E-2,2.8023908E-1,-6.2017426E0,1.6000425E1],"split_indices":[1,1,0,1,2,1,1,2,0,0,0,0,0,0,0],"split_type":[0,0,0,0,0,0,0,0,0,0,0,0,0,0,0],"sum_hessian":[6.8093E4,6.8092E4,1E0,6.7968E4,1.24E2,6.257E4,5.398E3,3.7E1,8.7E1,3.708E4,2.549E4,5.149E3,2.49E2,2.4E1,1.3E1],"tree_param":{"num_deleted":"0","num_feature":"5","num_nodes":"15","size_leaf_vector":"1"}},{"base_weights":[-8.43802E-2,-1.1127047E-1,7.326078E1,-2.4969233E-2,-4.9010784E1,-7.614148E-2,1.1220447E0,7.880932E0,-7.600996E1,-1.600229E-2,7.0014894E-3,7.220029E-2,2.7923918E-1,-4.443395E1,-3.2208705E0],"categories":[],"categories_nodes":[],"categories_segments":[],"categories_sizes":[],"default_left":[0,0,0,0,0,0,0,0,0,0,0,0,0,0,0],"id":52,"left_children":[1,3,-1,5,7,9,11,-1,13,-1,-1,-1,-1,-1,-1],"loss_changes":[1.6775902E6,2.8744594E5,0E0,3.9910706E3,4.854459E5,1.3197827E3,1.5068452E3,0E0,1.7257771E6,0E0,0E0,0E0,0E0,0E0,0E0],"parents":[2147483647,0,0,1,1,3,3,4,4,5,5,6,6,8,8],"right_children":[2,4,-1,6,8,10,12,-1,14,-1,-1,-1,-1,-1,-1],"split_conditions":[1.2198E4,2.59E2,7.326078E1,3.9E1,1E0,2E0,1.32E2,7.880932E0,3E0,-1.600229E-2,7.0014894E-3,7.220029E-2,2.7923918E-1,-4.443395E1,-3.2208705E0],"split_indices":[0,0,0,0,2,0,0,0,2,0,0,0,0,0,0],"split_type":[0,0,0,0,0,0,0,0,0,0,0,0,0,0,0],"sum_hessian":[6.8114E4,6.8113E4,1E0,6.7994E4,1.19E2,6.5091E4,2.903E3,1.8E1,1.01E2,3.7047E4,2.8044E4,2.658E3,2.45E2,6E0,9.5E1],"tree_param":{"num_deleted":"0","num_feature":"5","num_nodes":"15","size_leaf_vector":"1"}},{"base_weights":[7.374003E-2,4.7882084E-2,7.033035E1,-2.0793423E-2,3.6177216E1,-3.1619955E-2,6.0409846E0,9.0482235E-1,4.0636192E1,-7.582342E-3,4.83234E-2,1.8866077E-1,5.8266205E-1,7.1895256E0,2.39282E0],"categories":[],"categories_nodes":[],"categories_segments":[],"categories_sizes":[],"default_left":[0,0,0,0,0,0,0,0,0,0,0,0,0,0,0],"id":53,"left_children":[1,3,-1,5,7,9,11,-1,13,-1,-1,-1,-1,-1,-1],"loss_changes":[1.5455231E6,1.6870748E5,0E0,4.4541045E3,1.3844047E4,2.7199243E3,5.364009E2,0E0,5.487153E4,0E0,0E0,0E0,0E0,0E0,0E0],"parents":[2147483647,0,0,1,1,3,3,4,4,5,5,6,6,8,8],"right_children":[2,4,-1,6,8,10,12,-1,14,-1,-1,-1,-1,-1,-1],"split_conditions":[1.2198E4,2.59E2,7.033035E1,1.66E2,1E0,2.1E1,3E0,9.0482235E-1,4E0,-7.582342E-3,4.83234E-2,1.8866077E-1,5.8266205E-1,7.1895256E0,2.39282E0],"split_indices":[0,0,0,0,2,0,2,0,2,0,0,0,0,0,0],"split_type":[0,0,0,0,0,0,0,0,0,0,0,0,0,0,0],"sum_hessian":[6.7994E4,6.7993E4,1E0,6.7865E4,1.28E2,6.7745E4,1.2E2,2E1,1.08E2,6.1623E4,6.122E3,3.1E1,8.9E1,1.8E1,9E1],"tree_param":{"num_deleted":"0","num_feature":"5","num_nodes":"15","size_leaf_vector":"1"}},{"base_weights":[-1.2521093E-1,-1.501015E-1,6.751714E1,-2.0604959E-2,-6.9172615E1,-4.2079456E-2,2.3102105E0,-1.5298322E0,-7.834898E1,-9.257949E-3,2.3862544E-2,1.447444E-1,3.516354E-1,-2.3325397E1,-5.5515933E0],"categories":[],"categories_nodes":[],"categories_segments":[],"categories_sizes":[],"default_left":[0,0,0,0,0,0,0,0,0,0,0,0,0,0,0],"id":54,"left_children":[1,3,-1,5,7,9,11,-1,13,-1,-1,-1,-1,-1,-1],"loss_changes":[1.4250164E6,6.061769E5,0E0,3.3883413E3,5.6829562E4,1.6813531E3,6.375513E2,0E0,1.8404812E5,0E0,0E0,0E0,0E0,0E0,0E0],"parents":[2147483647,0,0,1,1,3,3,4,4,5,5,6,6,8,8],"right_children":[2,4,-1,6,8,10,12,-1,14,-1,-1,-1,-1,-1,-1],"split_conditions":[3.6594E4,7.77E2,6.751714E1,2.7E2,1E0,2.4E1,4.98E2,-1.5298322E0,2E0,-9.257949E-3,2.3862544E-2,1.447444E-1,3.516354E-1,-2.3325397E1,-5.5515933E0],"split_indices":[1,1,0,1,2,1,1,0,2,0,0,0,0,0,0],"split_type":[0,0,0,0,0,0,0,0,0,0,0,0,0,0,0],"sum_hessian":[6.7819E4,6.7818E4,1E0,6.7692E4,1.26E2,6.7075E4,6.17E2,2E1,1.06E2,5.5144E4,1.1931E4,4.99E2,1.18E2,3E0,1.03E2],"tree_param":{"num_deleted":"0","num_feature":"5","num_nodes":"15","size_leaf_vector":"1"}},{"base_weights":[-5.025458E-2,-7.4116826E-2,6.4816444E1,-1.9530147E-2,-3.0156988E1,-4.9475223E-2,1.3276863E0,1.17279976E2,-7.28453E1,-1.0492836E-2,1.3497447E-2,7.621877E-2,1.9518936E-1,2.0990846E0,3.5738033E1,-1.5697616E0,-6.250049E0],"categories":[],"categories_nodes":[],"categories_segments":[],"categories_sizes":[],"default_left":[0,0,0,0,0,0,0,0,0,0,0,0,0,0,0,0,0],"id":55,"left_children":[1,3,-1,5,7,9,11,13,15,-1,-1,-1,-1,-1,-1,-1,-1],"loss_changes":[1.3130676E6,1.11514414E5,0E0,2.7347627E3,7.82685E5,1.181948E3,6.1235425E2,8.280876E5,2.5446469E4,0E0,0E0,0E0,0E0,0E0,0E0,0E0,0E0],"parents":[2147483647,0,0,1,1,3,3,4,4,5,5,6,6,7,7,8,8],"right_children":[2,4,-1,6,8,10,12,14,16,-1,-1,-1,-1,-1,-1,-1,-1],"split_conditions":[1.2198E4,2.59E2,6.4816444E1,5.9E1,3E0,4E0,1.13E2,2E0,4E0,-1.0492836E-2,1.3497447E-2,7.621877E-2,1.9518936E-1,2.0990846E0,3.5738033E1,-1.5697616E0,-6.250049E0],"split_indices":[0,0,0,0,2,0,0,2,2,0,0,0,0,0,0,0,0],"split_type":[0,0,0,0,0,0,0,0,0,0,0,0,0,0,0,0,0],"sum_hessian":[6.7909E4,6.7908E4,1E0,6.7786E4,1.22E2,6.6313E4,1.473E3,2.7E1,9.5E1,4.825E4,1.8063E4,1.103E3,3.7E2,2.2E1,5E0,9E0,8.6E1],"tree_param":{"num_deleted":"0","num_feature":"5","num_nodes":"17","size_leaf_vector":"1"}},{"base_weights":[3.958821E-3,-2.038408E-2,1.3557336E1,-6.714347E-2,6.408917E-1,1.1006577E1,-7.8331904E0,-1.2535557E-2,5.8533084E-2,4.9339095E-1,1.8651643E0,-2.2051819E1,2.746137E0,2.5517878E-3,1.668033E-2,2.9335896E-2,5.559017E-2,1.1353675E-1,1.8471377E-1,9.19308E0,-4.3690714E-1],"categories":[],"categories_nodes":[],"categories_segments":[],"categories_sizes":[],"default_left":[0,0,0,0,0,0,0,0,0,0,0,0,0,0,0,0,0,0,0,0,0],"id":56,"left_children":[1,3,5,7,9,-1,11,-1,13,15,17,-1,19,-1,-1,-1,-1,-1,-1,-1,-1],"loss_changes":[2.2450922E4,2.1003728E3,3.2473856E5,7.140034E2,8.0916626E2,0E0,2.9825322E5,0E0,1.05438545E2,1.0197974E2,9.210889E1,0E0,9.452991E4,0E0,0E0,0E0,0E0,0E0,0E0,0E0,0E0],"parents":[2147483647,0,0,1,1,2,2,3,3,4,4,6,6,8,8,9,9,10,10,12,12],"right_children":[2,4,6,8,10,-1,12,-1,14,16,18,-1,20,-1,-1,-1,-1,-1,-1,-1,-1],"split_conditions":[7.77E2,9.3E1,1E0,6E0,3E2,1.1006577E1,2E0,-1.2535557E-2,4.2E1,1.41E2,3.96E2,-2.2051819E1,3E0,2.5517878E-3,1.668033E-2,2.9335896E-2,5.559017E-2,1.1353675E-1,1.8471377E-1,9.19308E0,-4.3690714E-1],"split_indices":[1,1,2,1,1,0,2,0,1,1,1,0,2,0,0,0,0,0,0,0,0],"split_type":[0,0,0,0,0,0,0,0,0,0,0,0,0,0,0,0,0,0,0,0,0],"sum_hessian":[6.8046E4,6.7925E4,1.21E2,6.344E4,4.485E3,1.7E1,1.04E2,3.7044E4,2.6396E4,4.004E3,4.81E2,3E0,1.01E2,2.2416E4,3.98E3,2.46E3,1.544E3,2.42E2,2.39E2,6E0,9.5E1],"tree_param":{"num_deleted":"0","num_feature":"5","num_nodes":"21","size_leaf_vector":"1"}},{"base_weights":[-1.2794401E-1,-1.6061092E-2,-5.978872E1,-2.6777698E-2,2.9235778E0,-2.1267535E2,5.4909084E-2,-7.8627095E-2,3.46859E-1,1.5996081E0,3.7459455E0,3.90625E0,-5.1693123E1,-1.1532738E-2,2.339344E-3,1.9984908E-2,5.5148456E-2,2.780328E-1,-3.093349E-1,1.6230051E-1,3.9886767E-1,-6.784635E-1,4.412047E0],"categories":[],"categories_nodes":[],"categories_segments":[],"categories_sizes":[],"default_left":[0,0,0,0,0,0,0,0,0,0,0,0,0,0,0,0,0,0,0,0,0,0,0],"id":57,"left_children":[1,3,5,7,9,11,-1,13,15,17,19,21,-1,-1,-1,-1,-1,-1,-1,-1,-1,-1,-1],"loss_changes":[4.5289253E5,2.1335527E3,1.1743666E6,1.3072676E3,2.618501E2,3.382409E6,0E0,4.1887766E2,2.7314807E2,9.9779224E2,3.1138574E2,1.6336866E4,0E0,0E0,0E0,0E0,0E0,0E0,0E0,0E0,0E0,0E0,0E0],"parents":[2147483647,0,0,1,1,2,2,3,3,4,4,5,5,7,7,8,8,9,9,10,10,11,11],"right_children":[2,4,6,8,10,12,-1,14,16,18,20,22,-1,-1,-1,-1,-1,-1,-1,-1,-1,-1,-1],"split_conditions":[2.59E2,1.32E2,4E0,1.4E1,3E0,2E0,5.4909084E-2,2E0,4.7E1,1E0,1.66E2,1E0,-5.1693123E1,-1.1532738E-2,2.339344E-3,1.9984908E-2,5.5148456E-2,2.780328E-1,-3.093349E-1,1.6230051E-1,3.9886767E-1,-6.784635E-1,4.412047E0],"split_indices":[0,0,2,0,2,2,0,0,0,2,0,2,0,0,0,0,0,0,0,0,0,0,0],"split_type":[0,0,0,0,0,0,0,0,0,0,0,0,0,0,0,0,0,0,0,0,0,0,0],"sum_hessian":[6.7848E4,6.7722E4,1.26E2,6.7477E4,2.45E2,3.5E1,9.1E1,5.9255E4,8.222E3,9.5E1,1.5E2,2.4E1,1.1E1,3.6861E4,2.2394E4,6.408E3,1.814E3,7.1E1,2.4E1,6.4E1,8.6E1,2E1,4E0],"tree_param":{"num_deleted":"0","num_feature":"5","num_nodes":"23","size_leaf_vector":"1"}},{"base_weights":[1.0079512E-1,7.733936E-2,6.3923786E1,-1.4393514E-2,5.0385536E1,-3.0759785E-2,1.7968576E0,-5.74224E1,7.8951445E0,-7.766101E-3,1.40303215E-2,1.1164517E-1,2.7363974E-1,8.563863E0,-4.3607376E1],"categories":[],"categories_nodes":[],"categories_segments":[],"categories_sizes":[],"default_left":[0,0,0,0,0,0,0,0,0,0,0,0,0,0,0],"id":58,"left_children":[1,3,-1,5,7,9,11,13,-1,-1,-1,-1,-1,-1,-1],"loss_changes":[1.2766688E6,3.144057E5,0E0,2.0159565E3,6.514006E5,9.21361E2,3.9202356E2,3.1864395E6,0E0,0E0,0E0,0E0,0E0,0E0,0E0],"parents":[2147483647,0,0,1,1,3,3,4,4,5,5,6,6,7,7],"right_children":[2,4,-1,6,8,10,12,14,-1,-1,-1,-1,-1,-1,-1],"split_conditions":[3.6594E4,7.77E2,6.3923786E1,2.7E2,4E0,1.5E1,4.98E2,3E0,7.8951445E0,-7.766101E-3,1.40303215E-2,1.1164517E-1,2.7363974E-1,8.563863E0,-4.3607376E1],"split_indices":[1,1,0,1,2,1,1,2,0,0,0,0,0,0,0],"split_type":[0,0,0,0,0,0,0,0,0,0,0,0,0,0,0],"sum_hessian":[6.8128E4,6.8127E4,1E0,6.8004E4,1.23E2,6.7396E4,6.08E2,3.8E1,8.5E1,5.0992E4,1.6404E4,4.89E2,1.19E2,2.9E1,9E0],"tree_param":{"num_deleted":"0","num_feature":"5","num_nodes":"15","size_leaf_vector":"1"}},{"base_weights":[7.184404E-2,4.9314246E-2,6.1366833E1,-1.4122099E-2,2.7198288E0,-5.3433962E-2,5.352251E-1,-9.988868E-3,3.7095766E-3,2.9922232E-2,1.070026E-1],"categories":[],"categories_nodes":[],"categories_segments":[],"categories_sizes":[],"default_left":[0,0,0,0,0,0,0,0,0,0,0],"id":59,"left_children":[1,3,-1,5,-1,7,9,-1,-1,-1,-1],"loss_changes":[1.1766542E6,1.4664148E5,0E0,1.4678129E3,0E0,4.5216272E2,5.8652734E2,0E0,0E0,0E0,0E0],"parents":[2147483647,0,0,1,1,3,3,5,5,6,6],"right_children":[2,4,-1,6,-1,8,10,-1,-1,-1,-1],"split_conditions":[1.2198E4,2.59E2,6.1366833E1,3.1E1,2.7198288E0,2E0,8.1E1,-9.988868E-3,3.7095766E-3,2.9922232E-2,1.070026E-1],"split_indices":[0,0,0,0,0,0,0,0,0,0,0],"split_type":[0,0,0,0,0,0,0,0,0,0,0],"sum_hessian":[6.8092E4,6.8091E4,1E0,6.7965E4,1.26E2,6.3427E4,4.538E3,3.6969E4,2.6458E4,3.78E3,7.58E2],"tree_param":{"num_deleted":"0","num_feature":"5","num_nodes":"11","size_leaf_vector":"1"}},{"base_weights":[1.12869665E-1,9.121149E-2,5.8912148E1,-1.0486323E-2,5.277697E1,-1.8608E-2,4.69261E0,8.35932E1,3.1806307E0,-4.472002E-3,2.8800461E-2,4.361305E-2,4.945024E-1,3.538281E0,9.989968E0],"categories":[],"categories_nodes":[],"categories_segments":[],"categories_sizes":[],"default_left":[0,0,0,0,0,0,0,0,0,0,0,0,0,0,0],"id":60,"left_children":[1,3,-1,5,7,9,11,13,-1,-1,-1,-1,-1,-1,-1],"loss_changes":[1.0842749E6,3.6433028E5,0E0,2.5924048E3,4.9233562E4,9.5661505E2,7.190093E2,5.6228094E4,0E0,0E0,0E0,0E0,0E0,0E0,0E0],"parents":[2147483647,0,0,1,1,3,3,4,4,5,5,6,6,7,7],"right_children":[2,4,-1,6,8,10,12,14,-1,-1,-1,-1,-1,-1,-1],"split_conditions":[1.2198E4,2.59E2,5.8912148E1,1.66E2,4E0,2.1E1,3E0,1E0,3.1806307E0,-4.472002E-3,2.8800461E-2,4.361305E-2,4.945024E-1,3.538281E0,9.989968E0],"split_indices":[0,0,0,0,2,0,2,2,0,0,0,0,0,0,0],"split_type":[0,0,0,0,0,0,0,0,0,0,0,0,0,0,0],"sum_hessian":[6.7997E4,6.7996E4,1E0,6.7866E4,1.3E2,6.775E4,1.16E2,3.7E1,9.3E1,6.1676E4,6.074E3,3.1E1,8.5E1,2E1,1.7E1],"tree_param":{"num_deleted":"0","num_feature":"5","num_nodes":"15","size_leaf_vector":"1"}},{"base_weights":[-2.0938369E-2,-4.1735176E-2,5.6555664E1,-1.088333E-2,-1.6145603E1,-2.9532837E-2,9.9853194E-1,-1.641892E1,2.010035E1,-8.832024E-3,5.7148123E-3,6.453644E-2,2.2142424E-1,1.924863E1,-1.8235731E0],"categories":[],"categories_nodes":[],"categories_segments":[],"categories_sizes":[],"default_left":[0,0,0,0,0,0,0,0,0,0,0,0,0,0,0],"id":61,"left_children":[1,3,-1,5,7,9,11,-1,13,-1,-1,-1,-1,-1,-1],"loss_changes":[9.996334E5,3.3778082E4,0E0,1.2774629E3,8.9511675E5,5.4402734E2,4.1555994E2,0E0,1.04593875E6,0E0,0E0,0E0,0E0,0E0,0E0],"parents":[2147483647,0,0,1,1,3,3,4,4,5,5,6,6,8,8],"right_children":[2,4,-1,6,8,10,12,-1,14,-1,-1,-1,-1,-1,-1],"split_conditions":[3.6594E4,7.77E2,5.6555664E1,1.98E2,1E0,6E0,4.98E2,-1.641892E1,4E0,-8.832024E-3,5.7148123E-3,6.453644E-2,2.2142424E-1,1.924863E1,-1.8235731E0],"split_indices":[1,1,0,1,2,1,1,0,2,0,0,0,0,0,0],"split_type":[0,0,0,0,0,0,0,0,0,0,0,0,0,0,0],"sum_hessian":[6.7987E4,6.7986E4,1E0,6.7857E4,1.29E2,6.6627E4,1.23E3,2E1,1.09E2,3.6996E4,2.9631E4,1.111E3,1.19E2,1.7E1,9.2E1],"tree_param":{"num_deleted":"0","num_feature":"5","num_nodes":"15","size_leaf_vector":"1"}},{"base_weights":[2.143764E-3,-1.782055E-2,5.4293438E1,-7.576243E-3,-5.4066644E0,-1.869629E-2,2.0544493E0,-1.9863031E2,4.0650455E1,-4.4110343E-3,1.9713094E-2,1.0716966E-1,2.7831545E-1,2.5476563E-1,-6.705932E1,5.30334E0,3.0044835E0],"categories":[],"categories_nodes":[],"categories_segments":[],"categories_sizes":[],"default_left":[0,0,0,0,0,0,0,0,0,0,0,0,0,0,0,0,0],"id":62,"left_children":[1,3,-1,5,7,9,11,13,15,-1,-1,-1,-1,-1,-1,-1,-1],"loss_changes":[9.212017E5,3.7532346E3,0E0,1.556056E3,1.1560874E6,6.52105E2,3.6598938E2,3.2297455E6,5.8415312E3,0E0,0E0,0E0,0E0,0E0,0E0,0E0,0E0],"parents":[2147483647,0,0,1,1,3,3,4,4,5,5,6,6,7,7,8,8],"right_children":[2,4,-1,6,8,10,12,14,16,-1,-1,-1,-1,-1,-1,-1,-1],"split_conditions":[1.2198E4,2.59E2,5.4293438E1,1.13E2,3E0,1.4E1,1.66E2,2E0,4E0,-4.4110343E-3,1.9713094E-2,1.0716966E-1,2.7831545E-1,2.5476563E-1,-6.705932E1,5.30334E0,3.0044835E0],"split_indices":[0,0,0,0,2,0,0,2,2,0,0,0,0,0,0,0,0],"split_type":[0,0,0,0,0,0,0,0,0,0,0,0,0,0,0,0,0],"sum_hessian":[6.7988E4,6.7987E4,1E0,6.7859E4,1.28E2,6.7496E4,3.63E2,2.4E1,1.04E2,5.934E4,8.156E3,2.43E2,1.2E2,1.9E1,5E0,9E0,9.5E1],"tree_param":{"num_deleted":"0","num_feature":"5","num_nodes":"17","size_leaf_vector":"1"}},{"base_weights":[2.6456911E-2,7.328941E-3,5.212172E1,-1.2829468E-2,9.2214924E-1,-3.6871813E-2,4.3621516E-1,-7.772618E-3,3.5838392E-3,3.0388333E-2,9.492071E-2],"categories":[],"categories_nodes":[],"categories_segments":[],"categories_sizes":[],"default_left":[0,0,0,0,0,0,0,0,0,0,0],"id":63,"left_children":[1,3,-1,5,-1,7,9,-1,-1,-1,-1],"loss_changes":[8.489165E5,1.5818903E4,0E0,7.341824E2,0E0,3.178089E2,1.4569421E2,0E0,0E0,0E0,0E0],"parents":[2147483647,0,0,1,1,3,3,5,5,6,6],"right_children":[2,4,-1,6,-1,8,10,-1,-1,-1,-1],"split_conditions":[1.2198E4,2.59E2,5.212172E1,3.6E1,9.2214924E-1,2E0,1.32E2,-7.772618E-3,3.5838392E-3,3.0388333E-2,9.492071E-2],"split_indices":[0,0,0,0,0,0,0,0,0,0,0],"split_type":[0,0,0,0,0,0,0,0,0,0,0],"sum_hessian":[6.8121E4,6.812E4,1E0,6.8002E4,1.18E2,6.4547E4,3.455E3,3.7135E4,2.7412E4,3.215E3,2.4E2],"tree_param":{"num_deleted":"0","num_feature":"5","num_nodes":"11","size_leaf_vector":"1"}},{"base_weights":[-3.3163493E-3,-2.172881E-2,5.0036835E1,-1.1288077E-2,-5.7316246E0,-3.7033536E-2,3.4984684E-1,-9.404276E0,1.5622357E1,-7.150829E-3,2.934129E-3,2.1555346E-2,6.730909E-2,1.2226525E1,9.335978E-2],"categories":[],"categories_nodes":[],"categories_segments":[],"categories_sizes":[],"default_left":[0,0,0,0,0,0,0,0,0,0,0,0,0,0,0],"id":64,"left_children":[1,3,-1,5,7,9,11,-1,13,-1,-1,-1,-1,-1,-1],"loss_changes":[7.824329E5,4.0501526E3,0E0,6.3053796E2,2.9792878E5,2.442846E2,1.781289E2,0E0,2.0807956E5,0E0,0E0,0E0,0E0,0E0,0E0],"parents":[2147483647,0,0,1,1,3,3,4,4,5,5,6,6,8,8],"right_children":[2,4,-1,6,8,10,12,-1,14,-1,-1,-1,-1,-1,-1],"split_conditions":[1.2198E4,2.59E2,5.0036835E1,3.1E1,1E0,2E0,9E1,-9.404276E0,3E0,-7.150829E-3,2.934129E-3,2.1555346E-2,6.730909E-2,1.2226525E1,9.335978E-2],"split_indices":[0,0,0,0,2,0,0,0,2,0,0,0,0,0,0],"split_type":[0,0,0,0,0,0,0,0,0,0,0,0,0,0,0],"sum_hessian":[6.7939E4,6.7938E4,1E0,6.7815E4,1.23E2,6.3303E4,4.512E3,1.9E1,1.04E2,3.7014E4,2.6289E4,3.879E3,6.33E2,9E0,9.5E1],"tree_param":{"num_deleted":"0","num_feature":"5","num_nodes":"15","size_leaf_vector":"1"}},{"base_weights":[-1.3072757E-2,-3.0724179E-2,4.803535E1,-7.2806687E-3,-1.2766869E1,-1.852921E-2,1.0000135E0,-7.3479133E0,-3.1584463E-1,-5.7231165E-3,6.71284E-3,6.352004E-2,1.6599718E-1,1.718805E1,-1.7463467E0],"categories":[],"categories_nodes":[],"categories_segments":[],"categories_sizes":[],"default_left":[0,0,0,0,0,0,0,0,0,0,0,0,0,0,0],"id":65,"left_children":[1,3,-1,5,7,9,11,-1,13,-1,-1,-1,-1,-1,-1],"loss_changes":[7.2111356E5,2.0313492E4,0E0,7.694788E2,1.23052555E5,3.647106E2,1.64443E2,0E0,5.0924906E5,0E0,0E0,0E0,0E0,0E0,0E0],"parents":[2147483647,0,0,1,1,3,3,4,4,5,5,6,6,8,8],"right_children":[2,4,-1,6,8,10,12,-1,14,-1,-1,-1,-1,-1,-1],"split_conditions":[1.2198E4,2.59E2,4.803535E1,8.1E1,1E0,3E0,1.66E2,-7.3479133E0,3E0,-5.7231165E-3,6.71284E-3,6.352004E-2,1.6599718E-1,1.718805E1,-1.7463467E0],"split_indices":[0,0,0,0,2,0,0,0,2,0,0,0,0,0,0],"split_type":[0,0,0,0,0,0,0,0,0,0,0,0,0,0,0],"sum_hessian":[6.8034E4,6.8033E4,1E0,6.7909E4,1.24E2,6.716E4,7.49E2,1.6E1,1.08E2,4.4258E4,2.2902E4,6.3E2,1.19E2,9E0,9.9E1],"tree_param":{"num_deleted":"0","num_feature":"5","num_nodes":"15","size_leaf_vector":"1"}},{"base_weights":[1.3822634E-2,-3.1397995E-3,4.6113945E1,-9.96451E-3,3.8234615E0,-3.0230094E-2,3.3808723E-1,5.7843098E1,-1.6527607E0,-6.120946E-3,2.6444057E-3,2.030922E-2,5.4548647E-2,7.429056E-1,1.0534219E1],"categories":[],"categories_nodes":[],"categories_segments":[],"categories_sizes":[],"default_left":[0,0,0,0,0,0,0,0,0,0,0,0,0,0,0],"id":66,"left_children":[1,3,-1,5,7,9,11,13,-1,-1,-1,-1,-1,-1,-1],"loss_changes":[6.645177E5,1.7749481E3,0E0,4.7854593E2,1.6122492E5,1.8778317E2,1.0790872E2,1.3501372E5,0E0,0E0,0E0,0E0,0E0,0E0,0E0],"parents":[2147483647,0,0,1,1,3,3,4,4,5,5,6,6,7,7],"right_children":[2,4,-1,6,8,10,12,14,-1,-1,-1,-1,-1,-1,-1],"split_conditions":[1.2198E4,2.59E2,4.6113945E1,3.4E1,4E0,2E0,8.1E1,2E0,-1.6527607E0,-6.120946E-3,2.6444057E-3,2.030922E-2,5.4548647E-2,7.429056E-1,1.0534219E1],"split_indices":[0,0,0,0,2,0,0,2,0,0,0,0,0,0,0],"split_type":[0,0,0,0,0,0,0,0,0,0,0,0,0,0,0],"sum_hessian":[6.7964E4,6.7963E4,1E0,6.7843E4,1.2E2,6.4111E4,3.732E3,3.7E1,8.3E1,3.703E4,2.7081E4,2.999E3,7.33E2,2.3E1,1.4E1],"tree_param":{"num_deleted":"0","num_feature":"5","num_nodes":"15","size_leaf_vector":"1"}},{"base_weights":[8.617944E-2,6.991573E-2,4.4269375E1,-7.4600214E-3,4.0492256E1,-2.364343E-2,4.4366944E-1,-4.7596076E-1,4.89903E1,-4.891271E-3,4.3180534E-3,3.0372173E-2,1.2573023E-1,1.737094E1,2.6938841E0],"categories":[],"categories_nodes":[],"categories_segments":[],"categories_sizes":[],"default_left":[0,0,0,0,0,0,0,0,0,0,0,0,0,0,0],"id":67,"left_children":[1,3,-1,5,7,9,11,-1,13,-1,-1,-1,-1,-1,-1],"loss_changes":[6.1225775E5,2.1282214E5,0E0,4.9584515E2,5.1597812E4,1.9082854E2,1.6923853E2,0E0,2.759885E5,0E0,0E0,0E0,0E0,0E0,0E0],"parents":[2147483647,0,0,1,1,3,3,4,4,5,5,6,6,8,8],"right_children":[2,4,-1,6,8,10,12,-1,14,-1,-1,-1,-1,-1,-1],"split_conditions":[1.2198E4,2.59E2,4.4269375E1,4.3E1,1E0,3E0,1.66E2,-4.7596076E-1,3E0,-4.891271E-3,4.3180534E-3,3.0372173E-2,1.2573023E-1,1.737094E1,2.6938841E0],"split_indices":[0,0,0,0,2,0,0,0,2,0,0,0,0,0,0],"split_type":[0,0,0,0,0,0,0,0,0,0,0,0,0,0,0],"sum_hessian":[6.8044E4,6.8043E4,1E0,6.7914E4,1.29E2,6.5563E4,2.351E3,2E1,1.09E2,4.4207E4,2.1356E4,2.226E3,1.25E2,8E0,1.01E2],"tree_param":{"num_deleted":"0","num_feature":"5","num_nodes":"15","size_leaf_vector":"1"}},{"base_weights":[1.0634188E-1,9.0722635E-2,4.2498592E1,-2.682881E-3,4.235167E0,-1.1271529E-2,1.5908018E0,-3.1999147E-3,1.1876269E-2,8.231279E-2,2.1575525E-1],"categories":[],"categories_nodes":[],"categories_segments":[],"categories_sizes":[],"default_left":[0,0,0,0,0,0,0,0,0,0,0],"id":68,"left_children":[1,3,-1,5,-1,7,9,-1,-1,-1,-1],"loss_changes":[5.642064E5,3.3575266E5,0E0,9.2924805E2,0E0,3.0988446E2,2.2346216E2,0E0,0E0,0E0,0E0],"parents":[2147483647,0,0,1,1,3,3,5,5,6,6],"right_children":[2,4,-1,6,-1,8,10,-1,-1,-1,-1],"split_conditions":[1.2198E4,2.59E2,4.2498592E1,1.13E2,4.235167E0,1E1,1.66E2,-3.1999147E-3,1.1876269E-2,8.231279E-2,2.1575525E-1],"split_indices":[0,0,0,0,0,0,0,0,0,0,0],"split_type":[0,0,0,0,0,0,0,0,0,0,0],"sum_hessian":[6.8016E4,6.8015E4,1E0,6.7896E4,1.19E2,6.7533E4,3.63E2,5.7239E4,1.0294E4,2.42E2,1.21E2],"tree_param":{"num_deleted":"0","num_feature":"5","num_nodes":"11","size_leaf_vector":"1"}},{"base_weights":[8.465457E-2,6.96572E-2,4.0798634E1,-5.0012744E-3,4.1954334E1,-1.9573152E-2,4.7727108E-1,2.7897045E1,4.5324493E1,-4.9840054E-3,2.8146508E-3,2.9369254E-2,9.83306E-2,3.0584352E0,-1.8519453E0,9.642933E0,3.1176844E0],"categories":[],"categories_nodes":[],"categories_segments":[],"categories_sizes":[],"default_left":[0,0,0,0,0,0,0,0,0,0,0,0,0,0,0,0,0],"id":69,"left_children":[1,3,-1,5,7,9,11,13,15,-1,-1,-1,-1,-1,-1,-1,-1],"loss_changes":[5.2000775E5,2.1265186E5,0E0,4.7707187E2,4.468E3,1.5416565E2,1.6444662E2,1.4599553E4,4.117672E4,0E0,0E0,0E0,0E0,0E0,0E0,0E0,0E0],"parents":[2147483647,0,0,1,1,3,3,4,4,5,5,6,6,7,7,8,8],"right_children":[2,4,-1,6,8,10,12,14,16,-1,-1,-1,-1,-1,-1,-1,-1],"split_conditions":[1.2198E4,2.59E2,4.0798634E1,4.8E1,2E0,2E0,1.32E2,1E0,3E0,-4.9840054E-3,2.8146508E-3,2.9369254E-2,9.83306E-2,3.0584352E0,-1.8519453E0,9.642933E0,3.1176844E0],"split_indices":[0,0,0,0,2,0,0,2,2,0,0,0,0,0,0,0,0],"split_type":[0,0,0,0,0,0,0,0,0,0,0,0,0,0,0,0,0],"sum_hessian":[6.8004E4,6.8003E4,1E0,6.7883E4,1.2E2,6.5893E4,1.99E3,2.5E1,9.5E1,3.7012E4,2.8881E4,1.737E3,2.53E2,2.1E1,4E0,6E0,8.9E1],"tree_param":{"num_deleted":"0","num_feature":"5","num_nodes":"17","size_leaf_vector":"1"}},{"base_weights":[-2.630759E-2,-4.0702622E-2,3.916668E1,-6.0954215E-3,-1.8689266E1,-9.690711E-3,1.9750466E0,-1.438667E2,7.7163806E0,-2.9814031E-3,9.097662E-3,-1.4080599E-1,2.832676E-1,-7.7497406E0,-2.6490082E1,2.4149992E1,-8.008236E-1],"categories":[],"categories_nodes":[],"categories_segments":[],"categories_sizes":[],"default_left":[0,0,0,0,0,0,0,0,0,0,0,0,0,0,0,0,0],"id":70,"left_children":[1,3,-1,5,7,9,11,13,15,-1,-1,-1,-1,-1,-1,-1,-1],"loss_changes":[4.794496E5,4.39002E4,0E0,4.8364166E2,4.175894E5,2.306661E2,7.255912E2,1.6152862E5,5.505395E5,0E0,0E0,0E0,0E0,0E0,0E0,0E0,0E0],"parents":[2147483647,0,0,1,1,3,3,4,4,5,5,6,6,7,7,8,8],"right_children":[2,4,-1,6,8,10,12,14,16,-1,-1,-1,-1,-1,-1,-1,-1],"split_conditions":[3.6594E4,7.77E2,3.916668E1,4.98E2,2E0,2.4E1,3E0,1E0,3E0,-2.9814031E-3,9.097662E-3,-1.4080599E-1,2.832676E-1,-7.7497406E0,-2.6490082E1,2.4149992E1,-8.008236E-1],"split_indices":[1,1,0,1,2,1,2,2,2,0,0,0,0,0,0,0,0],"split_type":[0,0,0,0,0,0,0,0,0,0,0,0,0,0,0,0,0],"sum_hessian":[6.8023E4,6.8022E4,1E0,6.7897E4,1.25E2,6.7775E4,1.22E2,2.1E1,1.04E2,5.5397E4,1.2378E4,3.6E1,8.6E1,1.8E1,3E0,5E0,9.9E1],"tree_param":{"num_deleted":"0","num_feature":"5","num_nodes":"17","size_leaf_vector":"1"}},{"base_weights":[-1.0738147E-1,-1.2118405E-1,3.76E1,-3.8905793E-3,-6.602845E1,-1.1454928E-2,8.1277436E-1,9.448329E1,-1.0809716E1,-3.171175E-3,6.0889595E-3,4.0611316E-2,1.0287207E-1,5.9323626E0,9.548414E0],"categories":[],"categories_nodes":[],"categories_segments":[],"categories_sizes":[],"default_left":[0,0,0,0,0,0,0,0,0,0,0,0,0,0,0],"id":71,"left_children":[1,3,-1,5,7,9,11,13,-1,-1,-1,-1,-1,-1,-1],"loss_changes":[4.4201488E5,5.2653125E5,0E0,4.2002634E2,1.3546858E6,1.662708E2,8.943198E1,9.857031E3,0E0,0E0,0E0,0E0,0E0,0E0,0E0],"parents":[2147483647,0,0,1,1,3,3,4,4,5,5,6,6,7,7],"right_children":[2,4,-1,6,8,10,12,14,-1,-1,-1,-1,-1,-1,-1],"split_conditions":[3.6594E4,7.77E2,3.76E1,2.7E2,4E0,1.5E1,3.96E2,2E0,-1.0809716E1,-3.171175E-3,6.0889595E-3,4.0611316E-2,1.0287207E-1,5.9323626E0,9.548414E0],"split_indices":[1,1,0,1,2,1,1,2,0,0,0,0,0,0,0],"split_type":[0,0,0,0,0,0,0,0,0,0,0,0,0,0,0],"sum_hessian":[6.8111E4,6.811E4,1E0,6.799E4,1.2E2,6.7367E4,6.23E2,3.6E1,8.4E1,5.0964E4,1.6403E4,3.8E2,2.43E2,2.2E1,1.4E1],"tree_param":{"num_deleted":"0","num_feature":"5","num_nodes":"15","size_leaf_vector":"1"}},{"base_weights":[6.525483E-3,-6.7545846E-3,3.6096016E1,-8.969622E-2,2.857906E-1,-1.64893E-2,-1.435611E2,3.4600686E-2,3.1777792E0,-1.2035229E-3,-1.8111555E-1,-6.7856956E-1,-9.770924E1,9.958877E-4,4.3086093E-2],"categories":[],"categories_nodes":[],"categories_segments":[],"categories_sizes":[],"default_left":[0,0,0,0,0,0,0,0,0,0,0,0,0,0,0],"id":72,"left_children":[1,3,-1,5,7,9,11,13,-1,-1,-1,-1,-1,-1,-1],"loss_changes":[4.071634E5,1.6488007E3,0E0,5.5605275E5,1.4868827E5,1.7184602E2,3.9205358E6,1.6651717E2,0E0,0E0,0E0,0E0,0E0,0E0,0E0],"parents":[2147483647,0,0,1,1,3,3,4,4,5,5,6,6,7,7],"right_children":[2,4,-1,6,8,10,12,14,-1,-1,-1,-1,-1,-1,-1],"split_conditions":[1.2198E4,3E0,3.6096016E1,2.59E2,2.59E2,1.66E2,2E0,6.6E1,3.1777792E0,-1.2035229E-3,-1.8111555E-1,-6.7856956E-1,-9.770924E1,9.958877E-4,4.3086093E-2],"split_indices":[0,2,0,0,0,0,2,0,0,0,0,0,0,0,0],"split_type":[0,0,0,0,0,0,0,0,0,0,0,0,0,0,0],"sum_hessian":[6.7951E4,6.795E4,1E0,5.2941E4,1.5009E4,5.2915E4,2.6E1,1.4915E4,9.4E1,5.2882E4,3.3E1,2.4E1,2E0,1.4288E4,6.27E2],"tree_param":{"num_deleted":"0","num_feature":"5","num_nodes":"15","size_leaf_vector":"1"}},{"base_weights":[1.7184205E-1,-8.0790175E-3,9.794821E1,-5.9686736E-3,-1.2525058E0,1.6989366E2,5.261425E0,-2.359509E-2,1.7379497E-1,7.879322E-3,-1.6482857E0,5.139439E0,3.2760852E2,-4.0129423E-3,1.3097796E-3,9.338443E-3,2.8611269E-2,-5.839867E-1,-7.3699094E-2,4.4704105E1,8.911273E0],"categories":[],"categories_nodes":[],"categories_segments":[],"categories_sizes":[],"default_left":[0,0,0,0,0,0,0,0,0,0,0,0,0,0,0,0,0,0,0,0,0],"id":73,"left_children":[1,3,5,7,9,11,-1,13,15,-1,17,-1,19,-1,-1,-1,-1,-1,-1,-1,-1],"loss_changes":[1.1972264E6,1.7839072E2,2.7823062E5,2.1488826E2,6.1652573E1,6.1213525E5,0E0,6.55797E1,6.349211E1,0E0,3.5897092E2,0E0,6.87574E5,0E0,0E0,0E0,0E0,0E0,0E0,0E0,0E0],"parents":[2147483647,0,0,1,1,2,2,3,3,4,4,5,5,7,7,8,8,10,10,12,12],"right_children":[2,4,6,8,10,12,-1,14,16,-1,18,-1,20,-1,-1,-1,-1,-1,-1,-1,-1],"split_conditions":[2.59E2,1.66E2,4E0,2.1E1,1E0,2E0,5.261425E0,2E0,5.7E1,7.879322E-3,3E0,5.139439E0,3E0,-4.0129423E-3,1.3097796E-3,9.338443E-3,2.8611269E-2,-5.839867E-1,-7.3699094E-2,4.4704105E1,8.911273E0],"split_indices":[0,0,2,0,2,2,0,0,0,0,2,0,2,0,0,0,0,0,0,0,0],"split_type":[0,0,0,0,0,0,0,0,0,0,0,0,0,0,0,0,0,0,0,0,0],"sum_hessian":[6.8054E4,6.793E4,1.24E2,6.7816E4,1.14E2,3.7E1,8.7E1,6.1761E4,6.055E3,2.6E1,8.8E1,2.3E1,1.4E1,3.71E4,2.4661E4,4.622E3,1.433E3,9E0,7.9E1,6E0,8E0],"tree_param":{"num_deleted":"0","num_feature":"5","num_nodes":"21","size_leaf_vector":"1"}},{"base_weights":[8.74467E-2,7.536935E-2,3.286402E1,-2.5724126E-3,4.1416798E1,-5.7856473E-3,1.7395356E0,1.3108736E2,5.00822E-1,-1.7351316E-3,1.2455805E-2,-7.201719E-2,2.1260132E-1,3.4161136E0,2.1354355E1],"categories":[],"categories_nodes":[],"categories_segments":[],"categories_sizes":[],"default_left":[0,0,0,0,0,0,0,0,0,0,0,0,0,0,0],"id":74,"left_children":[1,3,-1,5,7,9,11,13,-1,-1,-1,-1,-1,-1,-1],"loss_changes":[3.3738E5,2.1917902E5,0E0,3.800672E2,4.027E5,1.7404678E2,3.0529745E2,4.2083675E5,0E0,0E0,0E0,0E0,0E0,0E0,0E0],"parents":[2147483647,0,0,1,1,3,3,4,4,5,5,6,6,7,7],"right_children":[2,4,-1,6,8,10,12,14,-1,-1,-1,-1,-1,-1,-1],"split_conditions":[1.2198E4,2.59E2,3.286402E1,1.66E2,4E0,2.1E1,3E0,2E0,5.00822E-1,-1.7351316E-3,1.2455805E-2,-7.201719E-2,2.1260132E-1,3.4161136E0,2.1354355E1],"split_indices":[0,0,0,0,2,0,2,2,0,0,0,0,0,0,0],"split_type":[0,0,0,0,0,0,0,0,0,0,0,0,0,0,0],"sum_hessian":[6.8021E4,6.802E4,1E0,6.7893E4,1.27E2,6.7769E4,1.24E2,3.5E1,9.2E1,6.1694E4,6.075E3,3.2E1,9.2E1,2.2E1,1.3E1],"tree_param":{"num_deleted":"0","num_feature":"5","num_nodes":"15","size_leaf_vector":"1"}},{"base_weights":[5.395047E-2,4.236906E-2,3.1549452E1,-2.5891291E-3,2.4490294E1,-1.3939229E-2,3.1620067E-1,-6.749833E0,4.2407402E1,-3.553382E-3,2.0336956E-3,1.9969799E-2,7.008063E-2,-9.218516E-1,3.5673962E0],"categories":[],"categories_nodes":[],"categories_segments":[],"categories_sizes":[],"default_left":[0,0,0,0,0,0,0,0,0,0,0,0,0,0,0],"id":75,"left_children":[1,3,-1,5,7,9,11,-1,13,-1,-1,-1,-1,-1,-1],"loss_changes":[3.1097653E5,7.4850016E4,0E0,2.4595808E2,2.4739228E5,7.874356E1,8.688353E1,0E0,1.32406875E4,0E0,0E0,0E0,0E0,0E0,0E0],"parents":[2147483647,0,0,1,1,3,3,4,4,5,5,6,6,8,8],"right_children":[2,4,-1,6,8,10,12,-1,14,-1,-1,-1,-1,-1,-1],"split_conditions":[1.2198E4,2.59E2,3.1549452E1,4.3E1,1E0,2E0,1.32E2,-6.749833E0,2E0,-3.553382E-3,2.0336956E-3,1.9969799E-2,7.008063E-2,-9.218516E-1,3.5673962E0],"split_indices":[0,0,0,0,2,0,0,0,2,0,0,0,0,0,0],"split_type":[0,0,0,0,0,0,0,0,0,0,0,0,0,0,0],"sum_hessian":[6.8099E4,6.8098E4,1E0,6.7974E4,1.24E2,6.5638E4,2.336E3,1.7E1,1.07E2,3.6993E4,2.8645E4,2.089E3,2.47E2,4E0,1.03E2],"tree_param":{"num_deleted":"0","num_feature":"5","num_nodes":"15","size_leaf_vector":"1"}},{"base_weights":[-2.1348704E-2,-3.2485094E-2,3.028746E1,-2.960316E-3,-1.3059311E0,-6.3095004E-3,8.782125E-1,-2.034333E-3,6.4299963E-3,5.3591903E-2,8.587693E-2],"categories":[],"categories_nodes":[],"categories_segments":[],"categories_sizes":[],"default_left":[0,0,0,0,0,0,0,0,0,0,0],"id":76,"left_children":[1,3,-1,5,-1,7,9,-1,-1,-1,-1],"loss_changes":[2.8670647E5,3.2705572E4,0E0,2.0031009E2,0E0,1.1206729E2,9.733887E0,0E0,0E0,0E0,0E0],"parents":[2147483647,0,0,1,1,3,3,5,5,6,6],"right_children":[2,4,-1,6,-1,8,10,-1,-1,-1,-1],"split_conditions":[1.2198E4,2.59E2,3.028746E1,1.32E2,-1.3059311E0,8E0,1.66E2,-2.034333E-3,6.4299963E-3,5.3591903E-2,8.587693E-2],"split_indices":[0,0,0,0,0,0,0,0,0,0,0],"split_type":[0,0,0,0,0,0,0,0,0,0,0],"sum_hessian":[6.7994E4,6.7993E4,1E0,6.7871E4,1.22E2,6.7615E4,2.56E2,5.5397E4,1.2218E4,1.26E2,1.3E2],"tree_param":{"num_deleted":"0","num_feature":"5","num_nodes":"11","size_leaf_vector":"1"}},{"base_weights":[1.611295E-1,-2.5106715E-3,8.7693184E1,-1.1475424E-2,2.8345096E-1,1.8444658E2,4.574397E0,-3.8829785E-2,2.3732992E-2,1.388052E-1,4.5175564E-1,8.761638E1,3.920691E1,-3.089975E-3,-3.2650747E-3,9.1190654E-4,5.3096125E-3,2.867948E-2,-5.0240487E-2,2.636268E-2,1.3452117E-1,8.60599E0,-7.7927345E-1],"categories":[],"categories_nodes":[],"categories_segments":[],"categories_sizes":[],"default_left":[0,0,0,0,0,0,0,0,0,0,0,0,0,0,0,0,0,0,0,0,0,0,0],"id":77,"left_children":[1,3,5,7,9,11,-1,13,15,17,19,21,-1,-1,-1,-1,-1,-1,-1,-1,-1,-1,-1],"loss_changes":[9.7487544E5,1.7415718E2,3.6439E5,6.3440563E1,5.0208817E1,8.4491525E5,0E0,1.3507843E-2,1.5145508E1,1.8755206E2,1.4283568E2,4.768242E4,0E0,0E0,0E0,0E0,0E0,0E0,0E0,0E0,0E0,0E0,0E0],"parents":[2147483647,0,0,1,1,2,2,3,3,4,4,5,5,7,7,8,8,9,9,10,10,11,11],"right_children":[2,4,6,8,10,12,-1,14,16,18,20,22,-1,-1,-1,-1,-1,-1,-1,-1,-1,-1,-1],"split_conditions":[2.59E2,4.7E1,3E0,2E0,3E0,2E0,4.574397E0,3E0,1.4E1,1E0,1.66E2,1E0,3.920691E1,-3.089975E-3,-3.2650747E-3,9.1190654E-4,5.3096125E-3,2.867948E-2,-5.0240487E-2,2.636268E-2,1.3452117E-1,8.60599E0,-7.7927345E-1],"split_indices":[0,0,2,0,2,2,0,2,0,2,0,2,0,0,0,0,0,0,0,0,0,0,0],"split_type":[0,0,0,0,0,0,0,0,0,0,0,0,0,0,0,0,0,0,0,0,0,0,0],"sum_hessian":[6.8059E4,6.7933E4,1.26E2,6.5869E4,2.064E3,2.9E1,9.7E1,3.7069E4,2.88E4,1.111E3,9.53E2,2.3E1,6E0,3.3614E4,3.455E3,2.2339E4,6.461E3,8.64E2,2.47E2,8.68E2,8.5E1,1.9E1,4E0],"tree_param":{"num_deleted":"0","num_feature":"5","num_nodes":"23","size_leaf_vector":"1"}},{"base_weights":[-2.5248632E-1,-3.4873965E-3,-1.3896527E2,-1.3020188E-2,1.7214963E-1,-2.630516E2,-1.0427237E2,-3.5720248E-2,1.771924E-2,1.3117397E-1,3.618385E-1,-1.1273529E2,-6.5494806E2,4.1218324E0,-9.508429E0,-2.8427807E-3,-3.0039335E-3,4.3680752E-4,3.0700953E-3,7.7247648E-3,1.31950015E-2,1.6994779E-3,4.657762E-2,-1.1045591E1,-7.293984E-1,-7.0297714E1,2.7507694E1],"categories":[],"categories_nodes":[],"categories_segments":[],"categories_sizes":[],"default_left":[0,0,0,0,0,0,0,0,0,0,0,0,0,0,0,0,0,0,0,0,0,0,0,0,0,0,0],"id":78,"left_children":[1,3,5,7,9,11,13,15,17,19,21,23,25,-1,-1,-1,-1,-1,-1,-1,-1,-1,-1,-1,-1,-1,-1],"loss_changes":[2.3516442E6,1.1379681E2,4.977705E5,4.498486E1,2.7148949E1,1.4577835E6,2.2650388E5,1.1241913E-2,6.9346743E0,3.348774E0,4.660048E1,5.12435E4,1.8666705E6,0E0,0E0,0E0,0E0,0E0,0E0,0E0,0E0,0E0,0E0,0E0,0E0,0E0,0E0],"parents":[2147483647,0,0,1,1,2,2,3,3,4,4,5,5,6,6,7,7,8,8,9,9,10,10,11,11,12,12],"right_children":[2,4,6,8,10,12,14,16,18,20,22,24,26,-1,-1,-1,-1,-1,-1,-1,-1,-1,-1,-1,-1,-1,-1],"split_conditions":[7.77E2,1.08E2,3E0,6E0,2.7E2,2E0,4E0,3E0,2.1E1,1.41E2,3E0,1E0,3.6594E4,4.1218324E0,-9.508429E0,-2.8427807E-3,-3.0039335E-3,4.3680752E-4,3.0700953E-3,7.7247648E-3,1.31950015E-2,1.6994779E-3,4.657762E-2,-1.1045591E1,-7.293984E-1,-7.0297714E1,2.7507694E1],"split_indices":[1,1,2,1,1,2,2,2,1,1,2,2,1,0,0,0,0,0,0,0,0,0,0,0,0,0,0],"split_type":[0,0,0,0,0,0,0,0,0,0,0,0,0,0,0,0,0,0,0,0,0,0,0,0,0,0,0],"sum_hessian":[6.8085E4,6.7964E4,1.21E2,6.4466E4,3.498E3,2.5E1,9.6E1,3.7082E4,2.7384E4,2.878E3,6.2E2,1.9E1,6E0,8E0,8.8E1,3.3686E4,3.396E3,1.7186E4,1.0198E4,1.423E3,1.455E3,2.44E2,3.76E2,1.5E1,4E0,5E0,1E0],"tree_param":{"num_deleted":"0","num_feature":"5","num_nodes":"27","size_leaf_vector":"1"}},{"base_weights":[9.3009494E-2,-7.106903E-3,5.292871E1,-4.2821043E-3,-1.6351926E0,4.814717E1,2.6407383E1,-1.3170636E-2,1.2580924E-1,-4.046563E0,-5.1351476E-1,7.167257E1,4.167847E1,-2.6291155E-3,1.1562253E-3,6.886804E-3,1.6507272E-2,-1.4774498E-1,-8.5480255E-1,6.606173E-1,-1.0602529E-1,3.667583E0,1.0818183E1,-5.5041796E-1,3.7161343E0],"categories":[],"categories_nodes":[],"categories_segments":[],"categories_sizes":[],"default_left":[0,0,0,0,0,0,0,0,0,0,0,0,0,0,0,0,0,0,0,0,0,0,0,0,0],"id":79,"left_children":[1,3,5,7,9,11,-1,13,15,17,19,21,23,-1,-1,-1,-1,-1,-1,-1,-1,-1,-1,-1,-1],"loss_changes":[3.5800338E5,3.1066562E2,1.5374144E5,7.7979324E1,3.143814E2,1.63395E4,0E0,3.4339752E1,1.3779762E1,5.205769E2,5.8770435E2,3.6478953E4,2.3961234E4,0E0,0E0,0E0,0E0,0E0,0E0,0E0,0E0,0E0,0E0,0E0,0E0],"parents":[2147483647,0,0,1,1,2,2,3,3,4,4,5,5,7,7,8,8,9,9,10,10,11,11,12,12],"right_children":[2,4,6,8,10,12,-1,14,16,18,20,22,24,-1,-1,-1,-1,-1,-1,-1,-1,-1,-1,-1,-1],"split_conditions":[7.77E2,4.98E2,3.6594E4,9.3E1,3E0,3E0,2.6407383E1,6E0,1.71E2,1E0,4E0,2E0,4E0,-2.6291155E-3,1.1562253E-3,6.886804E-3,1.6507272E-2,-1.4774498E-1,-8.5480255E-1,6.606173E-1,-1.0602529E-1,3.667583E0,1.0818183E1,-5.5041796E-1,3.7161343E0],"split_indices":[1,1,1,1,2,2,0,1,1,2,2,2,2,0,0,0,0,0,0,0,0,0,0,0,0],"split_type":[0,0,0,0,0,0,0,0,0,0,0,0,0,0,0,0,0,0,0,0,0,0,0,0,0],"sum_hessian":[6.7678E4,6.7551E4,1.27E2,6.7435E4,1.16E2,1.26E2,1E0,6.3123E4,4.312E3,3.6E1,8E1,2.5E1,1.01E2,3.6851E4,2.6272E4,2.889E3,1.423E3,2.8E1,8E0,6E0,7.4E1,1.9E1,6E0,9E0,9.2E1],"tree_param":{"num_deleted":"0","num_feature":"5","num_nodes":"25","size_leaf_vector":"1"}}]},"name":"gbtree"},"learner_model_param":{"base_score":"[8.957988E0]","boost_from_average":"1","num_class":"0","num_feature":"5","num_target":"1"},"objective":{"name":"reg:squarederror","reg_loss_param":{"scale_pos_weight":"1"}}},"version":[3,2,0]}